-1.435983388274302830e-01, 6.659545237212535773e-02, 1.584161773218527650e-02, -5.460299303140469379e-02, 2.183966566836222090e-02, 8.571471115569938293e-02, 2.211321748550936772e-01, 2.011300131122463197e-01, 1.601326077355846866e-01, -4.652850081591838188e-02, -1.232728268891759016e-01, -7.762462314210505365e-02, -7.802179074510168233e-02, -7.546317815714587152e-02, 2.577913000606266158e-02, -4.811753437838373407e-03, -1.500984886004802787e-01, -3.183890388474374666e-01, -2.872068265266811138e-01, -3.337878872666031893e-01, -1.144833450087791166e-01, -2.197813283365492587e-01, -9.114863053427467443e-02, -1.374354196445136123e-01, 4.430265927174650842e-02, 8.183929833904063367e-02, 1.401344789436839433e-01, -1.938212038873324550e-01, -2.329654205578982618e-01, -2.925234874645099570e-01, -5.988230418877084071e-01, -4.921032437343175192e-01, -2.617373150948498761e-01, -1.552633039786839586e-01, 8.787713030247142065e-02, 5.940666876110800923e-03, -1.583306678706738330e-02, -4.347380771825518075e-02, -7.902907848471249497e-02, 1.448092796880573185e-01, -4.748754518529298141e-02, -5.957249948934163070e-02, -4.678715132508812213e-01, -4.251076514879968959e-01, -1.823672043940636200e-01, -2.695246781471989928e-01, -7.191314491966394051e-02, -2.272689228161614283e-01, 7.133538284871727975e-02, -2.612736612838203673e-02, 1.126717159857258260e-01, 3.465946143009588365e-01, 3.099047117855751043e-01, 5.483716153161418694e-01, 4.407885617230611341e-01, 5.587936276184547052e-02, -3.004095051944727021e-02, -3.781660567404267481e-01, -3.319547948569703116e-02, -8.941921673445760166e-02, -5.666863102140660274e-02, -3.082999530846110003e-01, 3.515261885647450457e-01, 4.780206191107986280e-01, 6.029604568587356717e-01, 1.025213524612230254e+00, 7.477365626283797306e-01, 1.112055682138824719e-01, -1.860492047403806137e-01, -2.224620602870041597e-01, 7.614817744614671424e-02, 2.502057721864506257e-01, -1.298264413751153978e-01, -2.173726270987478004e-01, 2.397859052036438732e-01, 5.095730062229005819e-01, 8.162034448195153447e-01, 1.077203829460803286e+00, 1.725224801714910494e-01, -2.369065538492424738e-01, -2.706573984357497076e-01, -2.494508191763850080e-01, 1.069337347799439175e-01, 1.862560033075877364e-01, 1.392423085482921014e-02, -1.543664336826201799e-01, 1.836168302530683527e-01, 1.826072797883140642e-01, 8.304342493160541405e-01, 6.384013837216072629e-01, -2.650090618654014074e-01, -1.958812813131558805e-01, 1.286577898390557362e-01, 1.285063614527581499e-01, 6.483320424064221987e-02, 6.849961950236516106e-02, -8.408600768042990767e-03, -3.281723434759306057e-01, -8.010665855781619327e-02, -1.463105060269308255e-01, 6.099023712172776251e-02, -9.878341163622988974e-02, -3.096939674788395935e-01, 1.221174287465099928e-01, 9.615150584652393251e-02, 1.813431641075564926e-01, 1.895561263381807457e-02, 1.265727276052640016e-01, -5.236339677605219428e-02, -2.369496896723842505e-01, -1.661474390193413697e-01, -3.672892698133292111e-01, -3.966872551541547609e-01, -2.005072373335530789e-01, -2.129745036665093849e-01, -2.403579503450243085e-02, 5.588979464326965241e-02, -2.342140831016858299e-02, 1.251439952017288360e-01, -3.279359792971698467e-02, 1.609557449618597563e-02, -9.586686782964959352e-02, -4.432018272019317556e-02, -1.357342190863858877e-01, -2.603778786277229917e-01, -1.796316589190374846e-01, -5.804043307307692884e-02, -4.070620485475177214e-02, -7.003375165919135947e-02, -5.335641277849960395e-02, 9.864210211435571474e-02, 4.516081188581980849e-02, 3.684220351921867198e-02, 3.404439487957824223e-02, -3.053950309736464322e-02, 6.810363642161654241e-02, 1.406892516448187969e-01, 3.437850843250951638e-02, 1.109527073067974878e-01, -5.156091441367677969e-02, -9.974324486618448005e-02, -1.030774459700417034e-01, -5.840131705657738981e-02, -2.511000524075606560e-02, -1.473353826153994406e-01, 4.580385602036203194e-03, -1.142795395207222703e-01, -6.953850603836343736e-02, -6.636358847259683780e-02, 2.485906482954620411e-01, 3.809532899576135723e-01, 2.405644190953648009e-01, 7.943106729013919842e-02, -7.185488767507645924e-02, -2.236074988860753399e-01, -8.788542355222444874e-04, 3.518962937344295716e-02, -8.097200822126769670e-02, -3.535222060141680056e-01, -3.115202316796391036e-01, 1.278092346837826909e-01, 1.789892939189375864e-01, 2.475566922924225255e-01, 4.091973751745690557e-01, 3.864467168811203113e-02, -2.137722197792718271e-01, -2.181172732720980667e-01, -1.349432832103354130e-01, -1.127625010022965113e-01, -2.159259756027464838e-01, -2.012721996745562569e-01, -3.387810475081481365e-01, -1.236755621363755664e-01, 1.924940438917800423e-01, 2.415603706711033916e-01, 1.401509558639786046e-01, 8.075257011253725130e-04, -1.567687657126727030e-01, -1.671578873998661730e-01, -2.678103578316606281e-01, -1.450203515515935578e-02, -2.390964532558087219e-01, -2.083282558528564421e-01, -4.051975882257725925e-02, -3.289551360411827746e-02, -4.938790206991297560e-02, -1.675170545065004790e-01, -2.748486779076863007e-01, 1.323514763546005182e-02, 1.092936061736653752e-01, -5.843472790183774912e-03, -1.442442591583777411e-01, 2.363301758206822964e-02, 1.960993254099367700e-02, -1.331695660607768242e-02, 2.304023939789366215e-03, -8.138890259088456258e-02, -6.338537369758686646e-01, -8.420403799785943777e-01, -5.831262238405928722e-01, -1.309767892084575704e-02, 1.396465038840033479e-01, 3.150771666253419090e-01, 2.231230673735793424e-01, 1.618635357917654061e-01, 2.835767601729358711e-01, 3.415702653514511300e-01, 1.102765247544759825e-01, -3.011885268665587811e-01, -6.123783837611984637e-01, -1.165284592331816471e+00, -5.974655662966861236e-01, 1.151959629233457599e-01, 4.362536497978274919e-01, 5.145181985676866576e-01, 2.555108879197183769e-01, 2.490041125860693316e-01, 3.721593529656492816e-01, 4.704104374641454589e-01, 3.463409492910678872e-02, -2.382967194603254901e-01, -1.085281321378338326e+00, -1.478743210329503510e+00, -4.904119379748251295e-01, 3.814853817052454299e-01, 4.537885555763362389e-01, 3.126652064761631933e-01, 3.499242958035178597e-01, 1.432216410533237450e-01, 3.398721214028739279e-01, 3.358433230077347842e-01, 1.050297300585314592e-01, -1.740872705350019478e-01, -4.943413826742180661e-01, -3.647493817983719078e-01, 1.165832423837053072e-01, 3.896385332817578484e-01, 1.997400139623870252e-01, 1.985251338026258194e-01, 4.043280414184959731e-02, 2.112686726541440907e-01, 1.485766153591087241e-02, 6.769413853017254568e-02, 2.593257833445636873e-01, 1.572296842111897963e-01, 3.092023083427259626e-03, -2.113480970196514874e-01, 2.398641646165995678e-01, 2.113229421575657518e-01, 1.533008355727564498e-01, -4.597924890108581221e-03, 1.914786442474548933e-02, -1.344365089727233287e-01, 7.270803174688234005e-02, 1.965426105038408852e-02, 3.171105655686456415e-01, 1.011230917211887459e-01, -9.070437705563481889e-02, -1.658859676881984380e-01, 8.599034176148816211e-02, -3.468823330196149635e-02, -1.478076918477355117e-01, -1.578577480354005913e-01, -1.042278708042805035e-01, 6.461539115796786914e-02, 6.254590627248078627e-02, 7.534307607711797361e-02, 1.318633776948662517e-01, 2.215723051591592940e-01, 1.240871385809276944e-01, -2.321320297307365166e-01, -4.169756710800215926e-01, -4.623784709951171412e-01, -2.586428349875229959e-01, -9.574122145369844128e-02, -1.946660173748199496e-01, -1.746750207264375077e-01, 5.300095093103140281e-02, 1.655262331779899232e-01, 2.286667831492902869e-01, 3.238192334029740271e-01, 3.518567801342710188e-01, 7.174272596810041258e-02, -1.763844902881155086e-01, -2.057852701070319590e-01, -2.391692242115651401e-01, -7.400382237333000268e-02, 2.937072609272171550e-02, -1.313698787612019026e-01, -1.436304653959249999e-01, -3.384033472358558697e-02, -5.785856171719503532e-02, -2.672570974876085220e-02, 2.733129303662641951e-01, 1.823311112047829863e-01, 5.895352754115033844e-02, 8.260032121586383114e-02, -7.366330325707731719e-02, 1.219388864225181765e-02, -1.724223931042751651e-02, -1.435959640860957620e-01, -1.929357940279858574e-01, -1.123244608390408933e-01, 1.204941122482544313e-01, 1.925386315262221371e-01, 1.388649929346714162e-01, 1.428070284678565893e-01, 1.053175275456243454e-01, -1.187967564994928116e-01, -2.132391031111396662e-01, -1.692787583797752682e-01, -3.127798070166115663e-02, -1.320016381890942447e-01, -4.478311935268468325e-02, -1.246342597380818186e-02, 7.097751129741955434e-02, 1.960540360005304239e-01, 1.951127126731860006e-01, 2.511047278758331558e-01, 3.936109057667898370e-02, -3.803872765199441813e-02, -3.147908087945847089e-02, 3.915933439580037562e-02, -7.559532435790164429e-02, -1.766491180483656387e-01, -1.618259512597728864e-02, -9.203185932219222487e-02, -8.863560118223506867e-02, 1.561628267649288193e-01, 1.677926751228471791e-01, 1.107706836356650015e-01, 5.167245151872260633e-01, 4.761280053584775462e-01, 1.163997280369438031e-01, 4.211401928820539264e-02, -1.504539746445983373e-01, -4.691663461813894154e-02, -5.035747640400365516e-02, -8.631634797077523957e-02, -1.514829641172703023e-01, -1.008030078379006794e-01, -1.423324447390682812e-01, 1.136880513661678582e-01, 3.872796036596438674e-01, 5.687461683607882845e-01, 4.489167365748832905e-01, 2.246541852140720719e-01, -1.392572264124271875e-01, 2.221400769649351792e-01, 2.096670019984181454e-01, -1.278817542772349436e-01, -1.173197242618249925e-01, -3.557385130396785167e-01, -4.781449660213186181e-01, -7.470456768076939591e-01, 4.854079636567064371e-02, 7.076171246591579367e-01, 4.959057210005046734e-01, 3.793767666964339980e-01, -1.417990773864554466e-01, 1.386715907673505277e-01, 3.727605574875179628e-01, 6.956262777819101351e-02, -2.276773060034445739e-01, -5.982127483835620874e-01, -1.160144618535285277e+00, -4.526300062755554410e-01, 1.483284984529635031e-01, 3.478794469099661946e-01, 1.303391884591567629e-01, 1.983089719364819759e-01, 8.262752196231240576e-02, 3.554199171993717155e-01, 1.759475778041673377e-01, 3.277435594074130237e-02, -4.427525775449300816e-02, -3.398947860195271065e-01, -7.807055589119850092e-01, -6.464098741612871180e-02, 2.177077876156958414e-01, 1.598534072906623582e-01, 6.729829561258390824e-02, 1.314383399444055134e-01, -1.204627558018690758e-01, 2.430539900189513658e-01, 2.772580554112626383e-01, 1.837973354299147766e-01, 1.339569541137037578e-01, -1.580068602222379215e-01, -4.998652894626631205e-01, -9.629883296083106836e-02, 2.372389393360069265e-01, -5.072002794448327717e-02, 2.123875982051079692e-01, -3.416374495224938634e-02, -4.103318481783050503e-02, 1.878018575247452637e-01, 2.793951386680157967e-01, 2.310427640704889041e-01, 3.574606765692952548e-01, 3.020003725940269557e-01, -2.119472844868827144e-01, -2.952180351251097457e-01, -3.425743334533902229e-01, -2.939148385993406998e-01, -5.786347658851729442e-02, -8.738165613078206773e-02, -1.306063674417035914e-01, 1.204931085943060087e-01, 2.281060384497926308e-01, 1.854270464400122331e-01, 3.539255997111149799e-01, 3.162022358635874220e-01, -5.173414776459538816e-02, -4.404777692013910340e-01, -4.496834473614742533e-01, -2.511167856032899826e-01, -2.442730884654473189e-01, -8.981066549784731678e-02, -3.098964715182825000e-02, -1.378192248003066306e-02, -8.779073653175699377e-03, 3.146789113068978461e-01, 1.912206648414902510e-01, 1.847813407392989438e-01, 1.237775053383418367e-01, -8.787525235326085205e-02, -1.355656324954962744e-01, -2.161872141273930847e-01, -1.981637412200829840e-01, -6.456457418648790803e-02, 8.965614046180460719e-03, -3.719043910243863271e-02, 9.563142526069697003e-02, -3.168746716680084265e-03, 7.027088232602421436e-02, 3.435399774035556575e-02, -3.696264617003772873e-02, -1.295236838035824546e-02, 1.304421771215484582e-01, -1.006922376824568727e-01, -2.411901730241143918e-02, -5.863765480080439935e-02, -8.401880355723109761e-02, 2.499651831747727593e-02, -6.211371896673012483e-02, 1.317318708354771883e-01, 2.271039995135472889e-01, 2.864040181053600365e-01, 2.500322890823813982e-01, 4.205403359806360042e-01, 2.057295706686100289e-01, -8.140837572120160348e-02, -2.184421377171520129e-01, -8.048920326783602641e-02, -5.296271197442659756e-02, 1.831118282265379801e-02, 1.034540779926210047e-01, 2.000158038035760311e-01, 2.692153010740472308e-01, 4.027229791681326554e-01, 7.430160838338693008e-01, 6.939588747690222936e-01, 2.814872961956930153e-01, -6.636588467151562087e-02, 1.104419374212013277e-01, 3.861898696243520196e-02, -8.802980622000439181e-02, 7.429769858926956599e-03, 1.438180076962352616e-01, 8.411589392601086235e-02, -7.787231885835673405e-03, 8.046151988161220903e-02, 1.423947404867284376e-02, 2.937700178142859178e-02, 1.655800565281437542e-01, 1.562512787819182181e-01, 1.151717528175280197e-01, -1.619501945828773493e-01, -2.024700020094767350e-01, -7.979106262018474671e-02, -2.595422058021577480e-02, -1.194200838519034469e-01, 1.565072031847733192e-01, 2.919331346459771437e-01, -5.994797269779473803e-01, 2.719275949335051568e-01, 3.935687162623557334e-01, 2.793210524952657314e-01, -2.310547263136658591e-02, -1.421671179406984731e-01, -2.065400584678291351e-01, -9.036481927354277077e-02, 1.003111526116381436e-01, 8.170274039727522253e-02, 6.323112277265969805e-01, 5.765163936329970040e-01, -2.511710913769291675e-01, 3.664457224356925114e-01, 5.173909300434277325e-01, -1.687555121730147448e-02, -1.349292217993430243e-01, -2.353285545958367919e-01, -7.693137837906763310e-02, 7.770584888890569308e-02, -2.605329135280418464e-04, 1.724704422590688513e-01, 7.055943758942498922e-01, 5.502955465828615056e-01, -2.413503488250109408e-01, 5.397424347004404765e-01, 7.351487428869486473e-01, 1.574879725144220366e-01, -1.171710984924410198e-01, 3.698049579905932777e-02, 3.250924618480832695e-02, 9.086825526393849106e-02, 2.008635396194252409e-01, 2.405852391304827143e-01, 4.042555728709612550e-01, 1.817123838757454812e-02, -2.177830964644096243e-02, 6.574467643517883930e-01, 5.396262092205238448e-01, -1.929648631668303693e-01, -2.377664487447937181e-01, -1.800746876687018827e-01, -3.694603304203830652e-02, 1.266676676017426950e-01, 7.676879028913963232e-02, 1.446529755702435083e-01, 9.502895887465180255e-03, 2.567249366263675836e-01, 2.862655598978200433e-01, 8.944074197279837379e-02, -2.084854499110170012e-01, -4.765400858104885118e-01, -7.825715483854467358e-02, -2.185089297028301736e-02, -3.143984000792822420e-02, -9.684530047954816034e-02, 6.102584965363316849e-02, 2.011091343581422608e-02, 1.977685948577297403e-01, 7.089283433775970256e-01, 3.938121717020299228e-01, -3.000130469300597014e-01, -6.002682575395249520e-01, -2.092295837723451291e-01, -5.804106156467557509e-03, -1.804422366167443559e-02, -2.915983710186805314e-02, 7.056504135671196054e-02, 5.965304591297624498e-02, 2.396490460672598133e-01, 5.570131223751130234e-01, 5.863031586202338552e-01, 2.173902157879183117e-02, -2.036743389986774566e-01, -1.670332176297502358e-01, 1.879134125840642988e-01, 2.571462631640333146e-02, -1.130091737162139953e-01, -2.580320685598117003e-02, 5.740371483276168404e-03, -7.607404606191302265e-02, 2.472728901404261936e-01, 1.706921000381010911e-01, 1.534890593656985658e-01, -3.074608756074021995e-02, 1.360907988541151248e-01, 8.063945859216277434e-02, 7.397523635042793644e-02, -6.355489136143706308e-02, -1.216795238142881763e-01, 3.240765810816920167e-02, 1.844145399427244980e-01, 6.589147178441902286e-02, 8.990250501851411447e-02, 1.417499417820952123e-01, 1.693158713285959072e-01, 4.231970092782264548e-01, 4.494000907070385686e-01, 4.802212555562580532e-01, 5.498282451378018187e-01, 4.279328027031534809e-01, 1.700580424424718018e-01, -2.527298086558702958e-02, 2.216046449244573058e-01, 5.411735202695205221e-02, -2.271415957078384562e-01, -2.059641416125193580e-01, -2.760465115168602712e-01, -3.588030392175716177e-01, -4.915079782637305494e-01, -2.876834048717543113e-01, 1.593065073252999675e-01, 2.226498858787170909e-01, 1.351378691939669474e-01, 7.076596040427145240e-03, 8.614115864736372752e-02, -5.699419337962728649e-02, -2.336960544052821831e-01, -4.092959069705948694e-01, -5.912942100963566316e-01, -5.809513106433448204e-01, -2.411913395671497762e-01, -3.131455648796972469e-01, -4.525391580914267520e-01, -3.437712182207455780e-01, 7.437649200346083643e-03, -8.780538115633744478e-02, -2.439461688812010615e-02, -3.535455779019775618e-03, -2.246408983657371961e-01, -6.199554670034334025e-01, -6.959255887497157733e-01, -1.208298974421809641e-01, 1.404881269709636893e-01, -3.919850567234902661e-01, -7.739533900121392529e-01, -4.791133148971563616e-01, -3.337321844210589528e-01, -1.983462290858742649e-01, -2.100440901987976356e-03, 1.558014022979200587e-02, -2.471876293232644906e-01, -7.277471562819224360e-01, -4.435658620092536308e-01, 1.711341817521164765e-01, 2.299351435700255075e-01, -3.368497842093154393e-01, -7.207835855512780832e-01, -5.762360802276284000e-01, -3.250102540101516557e-01, -1.236599581081339327e-02, 6.961093692846501146e-02, -5.969086579179697788e-02, -2.478025622263624883e-01, -7.686893834361379074e-01, 1.997143300253790832e-01, 2.493425868882863938e-01, 4.354940407012293790e-01, -5.633896431072308274e-03, -6.276508495879773442e-01, -3.562958884195432940e-01, -1.718931217564973191e-01, 1.482907241818326102e-02, 1.278805140979212829e-01, -8.167626998499169511e-02, -2.497389044540591074e-01, -5.472371506354631876e-01, 8.374554155364385966e-02, 2.202675508180984842e-01, 5.211361367659104182e-01, -1.763678934946558141e-01, -7.114423113273928845e-01, -2.898894231309458447e-01, -6.399412812705314313e-02, -1.379865718579560002e-02, 1.107538600816906638e-01, -2.824757835147503338e-01, -2.482243679936659841e-01, -4.308024514183942388e-01, -1.874806307091282376e-01, 2.178703202517842941e-01, 3.880184883781688798e-01, -3.243902548542305642e-01, -5.850151555460798569e-01, -1.456343096941508930e-01, 1.324779571254506572e-01, 3.111192880984591999e-02, -6.856836335714229513e-02, -2.012660895779115056e-01, 5.249046887176319481e-02, -1.657025361072039793e-01, 6.773982234438466477e-02, 4.415314546397715589e-01, 2.325114806877581763e-02, -6.856144016784104789e-01, -3.281413177753810806e-01, 1.059432847831246888e-01, 1.535193848765924463e-01, 2.379646888807978311e-01, 1.287405135771835241e-01, 1.519550628077875609e-01, 6.451598614122208177e-03, -3.156620906193141063e-01, -8.055839390832565672e-02, 5.154272740339640307e-02, -5.219339848802991844e-01, -5.337347594183886601e-01, -1.078528764631921794e-02, 6.436205355054365473e-02, -2.668672995698187153e-02, 2.037490607389900177e-01, 2.211861153896645671e-01, 1.233863785361952459e-01, 2.681841987417103446e-01, -1.191609891120540970e-01, -9.514460544772107564e-02, -1.732723072350646487e-01, -1.564040541337570478e-01, 2.532586883855730830e-01, 4.498756753830179811e-01, 1.239499336454744777e-01, 1.038607832732042768e-01, 6.762385299162883279e-02, 1.934190648840233007e-01, 2.125471278520533192e-01, 3.233069318652116997e-01, 1.329050791007742871e-01, -2.347417830365353952e-01, -1.596343703824478488e-01, 2.141056015636374765e-01, 5.016511584121835510e-01, 2.939028863689924220e-01, 5.230732037482727081e-02, 5.419249133570725602e-02, 1.262848936971176506e-01, -8.494739985565374907e-02, -3.415940379813069833e-02, -1.797935436390329655e-01, -1.790370099068583354e-01, -5.006917786133210230e-03, 2.593329902778665486e-01, 1.698283010395493786e-01, 3.024726662890206419e-01, 1.816076290356999356e-01, 1.579191406738202075e-01, -1.111996349806550072e-01, -1.122896512642576061e-01, 1.026117324150211535e-01, -9.534182709530504563e-02, -1.628128491047860782e-01, -1.804420651859134916e-01, -5.151268902901033619e-02, 2.381911540455416698e-01, 1.669652995786016503e-01, 2.608726196207004078e-01, 3.224594133526364481e-01, 1.357900921251623261e-01, 1.663093350780351365e-01, 7.828651729264191061e-02, 3.727278357903080624e-02, -2.416752974158278555e-01, -2.348688466369013850e-01, -1.855297383808729716e-01, -2.987505956750907687e-01, -1.498037225595685307e-01, 6.007653680627519227e-02, -7.813720258537681929e-02, 8.686281109236437814e-02, 1.299888811260854204e-01, 8.237087814232742569e-03, -5.599419563082781715e-02, -1.117996177466301227e-01, -1.656143810134703687e-01, -2.570218811522633762e-01, -3.506861128985571119e-01, -3.875323812243851029e-01, -2.373944740016582788e-02, -2.028927476113709938e-01, -6.286652332425635148e-01, -4.087213213433044112e-01, -1.492215831633744716e-01, 6.133392844196284416e-02, -9.356842785954144759e-02, 5.865079602385730312e-02, -2.338797208329118360e-01, -3.770689643119640722e-01, -2.225469750480755793e-01, -5.440391115134236150e-02, 8.194337078286094700e-01, 4.328806639832504799e-01, -4.271477140156963448e-01, -2.478571903748172656e-01, -1.760862015174400053e-01, -5.365451533946907076e-02, 7.048059118033959958e-03, -1.664037494583373578e-01, -2.193959223751480725e-01, -9.533459619880074731e-02, -3.408440533527204996e-01, 1.692766768589478443e-01, 7.518231420519215780e-01, 6.174821369282020855e-01, -3.855795802059098221e-01, -1.791324801831395974e-01, -2.334257641284245843e-02, 6.944905822149827213e-02, 1.439047922932352140e-02, 3.965836442540573298e-02, -2.004408618715772528e-01, -1.817676198378588848e-01, -3.757425024764041721e-01, 1.096585840083889596e-01, 3.609888473089198357e-01, 3.435505865929929792e-01, -5.487941045713528032e-01, -1.000133389933856309e-01, 1.549149588507841846e-01, -8.156322744909855205e-02, -1.056275041419504623e-01, -1.065773014109877292e-01, -2.563261226951010774e-01, -3.529215944913695058e-01, -2.744267677143967799e-01, -1.347295650889224483e-01, 3.699647396155906764e-01, -1.338156750075489565e-01, -7.366753919330486511e-01, -1.142061465188310559e-01, -7.242603573906043757e-02, 4.699457010397988660e-02, 1.138937918665414856e-01, -7.332400668735722382e-02, -2.660919289953394551e-01, -1.102016012219528135e-01, 5.374716548212503386e-02, 1.289866023626020097e-01, 3.404400445742065129e-01, -2.643037677205556379e-01, -6.579936073808986263e-01, -1.631090455376605075e-01, -1.172343608225484279e-01, -3.178450996855383681e-02, -4.234267856022756044e-02, -9.148928480663633123e-02, -5.984314902091251304e-02, -5.251958294428103052e-02, -2.151353945288161928e-01, -1.717394473438171865e-01, -1.086041885728384615e-01, -3.550727171272435173e-02, -5.970021715316167071e-02, 7.025425366893728318e-02, 6.828907053669054650e-02, 1.135356390287453471e-01, -7.805304683646754893e-02, 9.037771236916582185e-02, 8.785536729498142489e-03, -2.654045316453291364e-02, -3.964148660610654351e-02, -2.025946719329350387e-01, 2.058609721218479776e-03, 2.467895764430916572e-01, 3.288412384427448210e-01, 6.192905535985105542e-02, -5.394158600988392671e-02, 9.567375698187312316e-02, -5.061178171575492213e-02, -2.391712999573852860e-02, 6.658930545096605758e-02, 1.875731973672897443e-02, -2.796058230645690479e-01, -1.564573326877278792e-01, 9.952491879065284916e-03, 7.619697145591215748e-02, 1.343561422722547305e-01, -1.499557450504795941e-01, -1.556962153366712454e-01, 3.010080697920866286e-02, -8.430536096561919157e-02, 2.326481882189763983e-02, 4.486069612343840385e-02, -1.435658285676972012e-01, -2.136347693618610155e-01, -2.799115969989745545e-01, -3.868465823130861070e-01, -1.562249117297715151e-01, -8.514483310232706659e-02, 1.243277958161352337e-01, 6.141540175705397647e-02, 5.655462930578944447e-02, -3.847737167296511746e-02, 7.280178817248605938e-02, -1.241295064984029722e-01, -4.167880477571776487e-01, -5.460093068546988393e-01, -5.092426312465258009e-01, -3.113630120587939643e-01, -2.491914865990855488e-01, -2.741383602884996384e-01, -7.946141183679561459e-02, 1.445624154568755093e-01, 3.319097543202157580e-02, -4.375161808165713151e-02, 2.654401883514085139e-02, -1.234343546835320604e-01, -2.554217574889490194e-01, -4.562308101950819927e-01, -4.666088974195977679e-01, -3.098687760436212857e-01, -9.925927847208053378e-02, -8.042790269602316522e-02, -4.510470410738764285e-02, 1.392978694800283967e-01, -1.443941318208806501e-01, -2.245736066091272576e-01, 1.010297705509156513e-01, 2.658816704187680693e-02, 1.624374572370183845e-01, -1.090460793898113123e-01, -9.622850424961222615e-02, -3.357548256936802866e-02, 2.098227251223975728e-02, 4.552527680856627984e-02, 4.708926685978417903e-02, 1.093940361743307027e-01, -2.384832522627018392e-01, -1.776468442376606671e-01, 2.125888456765400725e-01, 5.623227552510304816e-01, 4.930881754583616994e-01, 9.471957224410504361e-02, 3.209141360884933403e-01, 3.546695941367657978e-01, 4.480349783629558047e-01, 5.381671743639936389e-01, 5.593963337068861286e-01, 2.058891776254742623e-01, 1.722930569356347780e-02, -1.140330084919241732e-01, 2.253787516750342945e-01, 4.848106756501729953e-01, -1.219812928640250232e-01, -6.200146985507113406e-01, -3.563098621138062749e-01, 2.590617906090874820e-02, 3.082803800961331220e-01, 4.908350504224537336e-01, 3.011689481241361932e-01, 4.730343080883583351e-01, -3.065128314575412197e-02, 9.481707983011591900e-02, 1.371213338180654051e-01, -9.879914349586320366e-02, -8.593970158347052912e-01, -8.773429293066998813e-01, -6.613173445983022702e-01, -7.045013494502946894e-02, 1.295388064435991082e-01, 6.787612353909282248e-02, -1.983647583105782250e-03, 1.530291018997211872e-01, -1.083223253447421069e-01, 1.600225000888342020e-01, -1.877306263238629480e-01, -3.159712320379276518e-01, -3.417217299126533714e-01, -2.561021283121953096e-01, -3.764877968122529728e-01, -4.803609596380136598e-02, 7.065953118001730426e-02, -1.448292979316173901e-01, -2.155887669231377479e-01, -2.915237044227208529e-01, -1.305381464692170201e-01, 5.023594635322660151e-01, -2.519207441717113971e-01, -3.362203751637215521e-01, 2.631210645140101556e-02, -4.608783881636900615e-02, -3.623243081109632224e-01, -2.275528333953737714e-01, -4.042439676664109083e-01, -3.649518563258389858e-01, -4.488794033681228757e-01, -2.713343263585720755e-01, 1.949321565057842154e-01, 7.484006057251471056e-01, -8.685017014468676688e-02, -1.211527842989224141e-01, 9.551114475065827780e-02, 2.747985308278882988e-01, 4.945335775681888001e-03, 1.246916288637800324e-01, -2.866933019014500927e-01, -4.339846966568022824e-01, -1.599098176640690872e-01, 3.345303620802866224e-02, 4.685202722002674847e-01, 4.355611437214311765e-01, 1.557179530859895134e-01, 2.123648278113530463e-01, 4.047539118061442287e-01, 3.750896197270869314e-01, 3.396190377970372265e-01, 1.242558054265927026e-01, -1.672333851007200556e-01, -2.917360026358235547e-01, -7.118726827437191207e-02, 9.437500107174778829e-02, 1.944059488913335021e-01, 2.974307072182696965e-01, 1.563502468896393882e-01, 3.103514879990089126e-01, 1.742250436735094665e-02, -1.603174494063485944e-01, -4.225538159966858442e-01, -4.973991649969514706e-01, -4.249701678796897752e-01, -5.101704047557218402e-01, -3.907829796743060302e-01, -7.902529904164350139e-02, 1.411951278541644615e-02, 1.110064733564993245e-01, -2.803353551778982669e-02, -1.482332113598994888e-02, 3.109722413199667024e-01, 4.653417149435233879e-01, 8.582348184561336968e-01, 7.956721166944492607e-01, 6.217838022095355521e-01, 3.555779824292628066e-01, 1.556686492185356263e-01, -1.536800257486117816e-01, -2.598919695571813016e-01, -1.958899494016450860e-01, -5.950423168120003853e-02, 2.948953496292064380e-01, 6.352509400479827706e-01, 2.444660746498820703e-01, 1.694190421709278749e-01, 8.871025450978330118e-02, -3.237694483916243593e-01, -5.589474062821637723e-01, -6.355052114303328947e-01, -7.245631048691874021e-01, -3.449598389020114841e-01, -2.844445598809521858e-01, -3.188502877218907239e-02, 3.872429658930886531e-01, 2.200722638025957301e-01, 3.441054788542029508e-01, 1.879989155914014443e-01, 2.351219472192240534e-01, 1.329895505250295804e-03, -5.491279906061308225e-01, -5.200149819848092214e-01, -4.867921115976904245e-01, -4.395494559699816284e-01, -3.386131092793558950e-01, -9.111327239041022708e-02, 7.000724423828583176e-02, -1.058673987897656849e-01, -3.664153968321040566e-01, -5.347290818209202712e-01, -6.052945602406726300e-01, -1.778626581238752780e-01, -2.916380377803522075e-03, -1.597889402578445417e-01, -2.595821549205789558e-01, -4.108132679633540452e-01, -2.329331310157052859e-01, -3.426397936803265432e-01, -5.679491696870372364e-01, -5.892094899485852411e-01, -4.396147883164416847e-01, -6.610046238092018855e-01, -6.607199031243836673e-01, -3.372503727802017570e-01, -1.436447522462970527e-01, -1.236718253044219624e-02, -8.950573251085469639e-02, -1.998860118635004957e-01, -1.366274947510583981e-01, -4.074383460120133971e-01, -2.163008953578056670e-01, 3.569924016577247228e-01, 6.596806015895829711e-01, 3.876570643665979143e-01, 3.645836891134596747e-01, 3.958635502465990830e-01, 1.435765920147155650e-01, 6.765914771157756358e-02, 1.478696871744165642e-01, 8.551394096145104040e-02, 2.354830465437593445e-01, 2.526086351233596677e-02, 2.290888356129954506e-01, 5.821516137223887721e-01, 3.341757518559944073e-01, 5.337034686921310334e-01, 3.173187480924453130e-01, 3.382821709715604919e-01, 9.983415955015942367e-02, 2.170949510716774500e-01, 3.810607926253934408e-01, 5.311746787009434811e-01, 6.609475160497585433e-01, 2.148525744438563867e-01, 1.775968855629020682e-01, 1.972378528109050219e-02, 8.150819919631856203e-02, 1.055506091304429794e-01, 2.817981723097620073e-01, 9.466072155657533072e-02, -1.649379205213477306e-01, 4.359218054168560730e-02, 4.703374304100964021e-01, 7.160658945570063105e-01, 8.942033821154116158e-01, 3.281882282760837377e-01, 3.213732811290949121e-01, 9.222904422072086827e-02, 1.379793568993575859e-01, -8.087639167982850485e-02, -4.518959074244177990e-03, 9.296345528133909131e-02, 2.598665790996976810e-01, 6.264990476245525519e-01, 7.505094122222413233e-01, 8.640458171679379351e-01, 8.315761321846076859e-01, 2.540751720082684573e-01, 5.298650043185142433e-01, 4.419181752410062947e-01, 1.046261910132203210e-01, -8.603842096492782254e-02, -4.980631824498112370e-01, -3.039990817630806030e-01, 2.852113123384997229e-01, 8.008692591451503917e-01, 9.894955894653866268e-01, 6.982485882598955529e-01, 4.378158927078206752e-01, 1.381533090119357321e-01, 2.234328686743068948e-01, 2.441030787614748288e-01, 1.122559682128937975e-01, -8.972919441046565969e-02, -2.916144133493414059e-01, -3.566638686841119288e-01, 6.741189993254650958e-02, 4.474485393225426932e-01, 3.989175443187136794e-01, 3.298850620500129449e-01, 1.409345109982173549e-01, 1.754224043200429834e-05, -1.232614368793661236e-01, -7.856395831880624847e-02, -1.420481007276127791e-02, -1.587386363821640112e-01, -4.500172773451486252e-01, -6.238250109072649430e-01, -3.567183726870369331e-01, 5.162052411280516201e-02, 1.389682248069160075e-01, 1.813471984556315753e-01, 9.243181497917381251e-02, -7.038671106586218140e-02, 1.566324726316530580e-01, 2.849238043362168904e-01, 5.507023493234320943e-01, 4.435823681644528449e-01, 3.249938788126162659e-01, 1.630863047480524131e-01, -1.102808482278388146e-02, -2.937483043193959698e-01, -1.301867349817993902e-01, -1.225623941069739209e-01, -4.872232237998433413e-02, 6.196243335167592181e-02, 2.454896106575220893e-01, 3.885794489934488727e-01, 4.298520857479747881e-01, 2.652955058118641185e-01, 2.888642985145700171e-01, 2.954503876165780196e-02, -6.625671061553757568e-02, -1.951414143022077996e-01, -1.696988096534680357e-01, -1.848466492878189649e-01, 1.479198145163696521e-01, 8.987847352097873277e-02, 1.802295333698988589e-01, 5.112695021310439403e-01, 5.378212962523090113e-01, 4.722358903161094634e-01, 4.013189239304917333e-01, 2.709059571079074913e-01, 7.374351002594045634e-02, 8.635620340935003247e-02, 5.552173251114370101e-02, -2.092222228813584439e-01, 9.947743423692555209e-02, 1.309879388630072750e-01, 1.840964000886751925e-02, -2.546508568937030578e-03, -9.579703593498374581e-02, -8.960364780682894548e-02, -2.088294501466552155e-01, -1.110233033995243479e-01, 5.710260260058880322e-02, 1.729057965230506311e-01, 8.886640560409965472e-02, 5.772810311723549498e-02, 1.226486299866058616e-01, -3.256061308506164043e-01, -6.140852302525812156e-01, -5.116322861765276730e-01, -5.214543180960409252e-01, -7.031481689017174963e-01, -4.842003142629047741e-01, -3.704362326462456306e-02, 2.353836693664909108e-01, 4.271939657507780597e-01, 2.673878245243284102e-01, 4.946180922932754548e-02, 3.461238105589035940e-02, -4.523141688346384304e-01, -6.027307711690387260e-01, -4.964634142933576078e-01, -6.756485026276524142e-01, -9.775373139103862297e-01, -7.609162498659228779e-01, -3.836288963654125861e-01, 1.974783729854175385e-01, 3.443416794412437199e-01, 1.249986925246210495e-01, 1.263953447184204548e-01, 4.045934220487560490e-02, 5.970172301028267570e-02, -1.245331719196474951e-01, -5.090964972765894651e-03, 1.543293356741332230e-02, 6.740110441361052418e-03, 1.589725585447751832e-01, -2.676911827070953265e-02, -1.107273286312554367e-01, 1.344264971425585334e-03, -2.857688238832613026e-01, -2.222889417058957484e-01, 2.824792525089694223e-02, 4.749307424319479387e-01, 4.607064883268260358e-01, 4.371481241173013066e-01, 6.417903050575266555e-01, 9.086050161642141854e-01, 7.391768570064057853e-01, 2.550992143810875204e-02, -1.398270048043220026e-01, -4.934624239774616505e-01, -3.750991929989039297e-01, -7.238146766011095690e-02, -1.316554790612736378e-02, 7.131595775911110380e-01, 5.917150051731034921e-01, 4.239473814736160473e-01, 2.330282560461220120e-01, 4.874579054609767259e-01, 2.838024783622548064e-01, 1.577039738290002269e-01, 2.317233659965108050e-01, -1.155901295284066099e-01, -2.585819895817634273e-01, 1.407060485266176109e-02, 2.119889964244671132e-01, 4.972924976196150260e-01, 4.662517710308008989e-01, 4.005319975282083389e-01, 4.991033850973015107e-01, 2.417524926238585892e-01, 2.200283445202863564e-02, 2.176909930349010813e-01, 3.059272026982196024e-01, -1.131215627898275317e-01, -5.478479306524752790e-02, 1.868684949384503413e-01, 5.535266139271267927e-02, 1.518896060879093568e-01, -6.771804290810959359e-02, 1.586228932342819906e-02, 1.665096052675507921e-01, 1.821739322136533001e-01, -2.111713948077402828e-02, -1.704558119156776297e-01, 1.167349608260965024e-02, 1.989561921990449719e-02, -4.206992164791443362e-02, 1.419292429196752359e-01, 1.425760162325714620e-01, -3.777629861760214980e-02, -3.298687720392644573e-01, -6.640852615860078911e-01, -3.910624645719635306e-01, -3.455676587977070113e-01, -3.425946719268222473e-01, -5.022722230348201089e-01, -3.239516381926484945e-01, -2.700277078066273262e-01, 3.003155168985858353e-02, 2.661871789760423407e-02, 1.871800005623716623e-02, 1.224189513192988910e-01, -2.919007980865569868e-02, -3.090582217608237384e-02, -1.088342374930946765e-01, -2.104299466978080957e-01, -1.688700966104363377e-01, -6.560104632699426119e-02, -9.609993838470042016e-02, 2.088036660365153938e-02, 2.586984304734116780e-01, -7.455353967210000266e-02, -7.944469848821177071e-02, 6.454479749182180648e-02, -3.037145492461141849e-01, -3.532767288263216066e-01, -5.794958874991017472e-01, -3.811688991367734869e-01, -2.274107606092552747e-01, 8.235255008957034772e-02, -9.022977915850060454e-03, 1.132854370628032792e-01, 9.462531981779044588e-02, -9.296390257078510078e-02, -7.043479783106557091e-02, -1.698035961273050287e-01, -2.892013162125494641e-01, -3.782119665218270366e-01, -5.127688929002919282e-01, -3.226344072785241046e-01, -4.866775354283779942e-01, -1.942627263582039354e-01, -6.039661063431418092e-02, -1.601484025330383310e-01, -1.589469049073068130e-01, -2.145306211160693255e-01, -1.607368393755614910e-01, -1.303229160601732661e-01, 7.926553549986160158e-03, 4.418614670488327234e-02, -2.482903868012354687e-01, -5.882862752919739702e-01, -4.862788694130225076e-01, -1.651578639462511489e-01, 1.519285209641911246e-04, -9.214664865503994010e-03, 5.468953557999832460e-03, -1.189220546246522875e-01, -1.266478357785189579e-01, -2.211503665800320165e-02, 3.988374390139186043e-01, 3.175011601449311827e-01, -1.913923149361053677e-01, -5.034593717791465695e-01, -7.556799748745367529e-01, -5.161865668485532410e-02, 5.314219189220137363e-01, 5.723725461378370571e-01, 7.693773211152915570e-01, 4.083363328287143434e-01, 2.047150026508624820e-01, 1.479441716695109044e-01, 3.949753903152213308e-01, 2.215495766220963447e-01, 7.449549764414495345e-02, -3.682709816032729844e-01, -4.374059727432957345e-01, 2.308857088777696923e-02, 1.259585490970229482e-01, 2.759462641183590970e-01, 4.856776079736214724e-01, 2.034323079966807724e-01, -1.220065623040554603e-01, 1.925711966819254953e-02, 2.343884210793153455e-01, 1.396330887817749944e-01, 1.828615812068747626e-01, 3.717006423265576537e-02, -2.105911377526698547e-01, -3.382106699168825892e-01, -3.168131136426515226e-01, -2.746125021692857326e-01, 1.009624625208635912e-01, -3.345705081520595203e-01, -8.903860845345500097e-02, -1.375087389046627806e-01, 1.259894240689944933e-01, 1.696469700596988858e-02, 9.454512614476387466e-02, -1.259060483299920263e-01, -2.782799645124709453e-01, -4.232438920766089518e-01, -5.485238733771072850e-01, -2.371724987279563435e-01, 1.366402994031754720e-02, -9.502143953364362849e-02, 5.395662101547957223e-02, -3.135907028466268232e-01, -1.871001440714130104e-01, -3.629633312943004730e-01, -4.245637315174392579e-01, -7.650156714725231399e-01, -8.980221691963318209e-01, -6.091366265460635976e-01, -6.592859816792707994e-02, 9.261306439744435015e-02, 3.943213289421772932e-02, 7.559412610396955279e-02, -4.199436361115260058e-03, -3.841159343459448761e-01, -3.581994718238881714e-01, -4.275231133352415114e-01, -3.972063635913851143e-01, -4.576271234696800971e-01, -4.835327255000927971e-01, -1.478902482320986478e-01, 1.380752306248052372e-03, 2.211710851257958077e-01, 2.644227153824330045e-01, 2.008889528213134157e-01, -1.469013015733574012e-01, -2.946225397657805667e-01, -2.361791210504874117e-01, -4.179713181327583960e-01, -5.295124940343266529e-01, -4.317275580857648509e-01, -2.953954566581483143e-01, 6.831372789535848644e-02, 1.687976856720293378e-02, 3.682938521356481365e-01, 3.113973712337180233e-01, 6.092115875401050290e-02, -1.423873522370360523e-01, 7.053152882225563469e-03, -1.720371654431969988e-01, -9.988053208098703062e-02, -7.105960478011545678e-02, -8.074373792775993430e-02, 1.516834556087662822e-01, 5.089484646647067512e-02, 3.569271002221700156e-02, -6.223609710039967186e-02, -7.953351968090082921e-03, -1.754765652217478433e-01, -7.188263360660598900e-02, 3.469338520637225802e-03, 1.273705368256897730e-01, 4.403952220634259618e-01, 6.283448077019012645e-01, 4.317386195932830240e-01, 3.758026647691297129e-01, 2.638573092821463670e-02, -2.525658789639441126e-01, -3.848675346034347022e-01, -5.404483618084947594e-01, -3.915682532072248256e-01, -9.905658617303352009e-02, 2.623360194880905438e-01, 6.181343685020208589e-01, 5.675707061237974527e-01, 7.813544103647992456e-01, 7.181711392044511921e-01, 2.995696029435890861e-01, -1.855755451699980796e-01, -2.553803225677412914e-01, -4.190014145073969187e-01, -5.303095804245715472e-01, -6.375222608828471360e-01, -3.514283174708730528e-01, 3.046806195433827691e-01, 5.089125557389071464e-01, 4.720582956822819143e-01, 5.194647628135548034e-01, 5.905143912868844602e-02, -4.954007157097898434e-02, 1.550931536902235841e-01, 1.059467803170380529e-01, -3.817364116511841599e-01, -3.039207572413443192e-01, -3.461148348807479569e-01, -3.250566112816388742e-01, 1.737330352835811387e-01, 2.193514207164160290e-01, 4.188998101942747847e-03, -1.816021805714536641e-01, -2.003972598083860746e-01, 1.807363817674429995e-01, 4.955009956262730331e-01, 1.654547963063317806e-01, -3.192677438265930090e-01, -2.503487262447515738e-01, -3.829119107004851363e-01, -2.503342108793558118e-01, 7.812594589587668059e-02, -1.581630062880343968e-01, -1.675072458782358442e-01, 5.009508833306175468e-01, 6.427432719879103695e-01, 4.436223571220471729e-01, 2.666787756437016821e-01, -1.674728415412020666e-01, -2.296469160733707882e-01, -6.794211662526195017e-02, -3.592319230628507887e-01, -4.007519128384565699e-01, -2.037038317284038114e-01, -4.775368556688509014e-01, -2.828905107795529061e-02, 4.532539140560779001e-01, 3.909107129970744721e-01, 3.449912889561795870e-01, 2.015317630435734808e-01, -1.681274922911299430e-01, 4.344889729751780921e-02, 1.318567390845235276e-01, -3.073549975759784503e-01, -3.513214015463078654e-01, 6.549407812854350641e-02, -2.694170353786976557e-01, -3.894420504995171339e-01, -2.416306952619619031e-01, -1.909604257192957510e-01, -7.857142217520840521e-02, -1.827872469548063594e-01, -3.465434614424240944e-01, 8.252067232979044820e-02, -1.616493961454704975e-01, -2.391277119146088814e-01, -2.679138359405579539e-01, 3.245519642651188419e-01, 1.847675544596228958e-01, -2.749340040513104655e-01, 7.966879438057454521e-02, -3.118284396572413297e-01, -1.868950031352875074e-01, 4.069142732471515284e-02, 2.679443114839172562e-03, 2.213016631828424452e-01, -6.769235369604847952e-02, -1.631194025605380571e-01, -2.507487922420454929e-01, 6.606116278826354993e-01, 4.731823603361047237e-01, 4.316165112927419778e-01, 4.248308220949844061e-01, 1.663965553000333053e-01, 1.078788131352490520e-01, 4.025259153657939626e-02, 1.886920313992744569e-01, 3.002860337028349091e-01, 1.132057795183569471e-01, -2.417860473972950272e-02, -1.544382853105079612e-01, 5.579733380428815170e-01, 7.170031352158983129e-01, 5.805081616617109308e-01, 3.555391860100232670e-01, 7.296529254416919685e-02, -2.038270804406883407e-01, 2.024015680584996535e-01, 3.655850725586243799e-01, 2.426236742763882848e-01, -2.056384134864884805e-01, -1.646726148457449967e-01, -4.259081753059187903e-01, 3.790288976127619280e-01, 7.295234455778163429e-01, 8.908620076861362147e-01, 9.441392336054008627e-01, 5.258419615312504014e-01, 9.033277735938322062e-02, 2.327602018810613904e-01, -1.936309309791407751e-02, -1.731016374938291191e-01, -1.949450366654071898e-01, -3.825743180043308933e-01, -2.357894343402968385e-01, 1.817968320357886691e-01, 2.922227355773599489e-01, 3.651404840459870349e-01, 3.774261785184047091e-01, 5.816424267998587805e-01, 5.294500981583550453e-02, -1.121553577830199100e-01, -2.755746263540760910e-01, -1.794443770682716821e-01, -2.590438607667271409e-01, -1.631889865871931911e-01, -2.381271484271689498e-01, 1.450493632188333548e-01, 1.812153913857803555e-01, 3.441819806295332573e-01, 3.411185775859372771e-01, 2.654190654607450628e-01, 5.531463907869348107e-02, 6.341458215776915597e-02, -1.431106984245143765e-01, -1.341961579102985413e-01, -2.557842280448232031e-01, 1.443677199731745360e-02, -9.562110839322710693e-03, 1.295342485307554026e-01, 3.563744188771791332e-01, 3.370847369730704535e-01, 2.624534387484233067e-01, 9.750073175971245287e-02, -1.212725204783524774e-01, 1.021612576772455705e-01, 6.659549377969126160e-02, -1.131687027118781635e-01, -3.133598277022138778e-01, -1.494440154481194993e-01, 9.171299769874782576e-04, 3.299344788158799502e-01, 3.278957511284085746e-01, 2.175346057462306526e-01, 2.030213373420162726e-01, 1.161622429841277643e-01, 1.069689301466434650e-01, 9.047701785925613138e-02, 1.963032435612117963e-03, 2.208375261813625146e-01, 2.448798104761866212e-01, -1.912488440166034698e-01, -5.770978951965206709e-03, 1.560331382226592678e-01, 7.706734844478953239e-02, -1.264465244435383495e-01, -3.349442513048173087e-01, 1.037070136646821988e-01, 5.693670568807461807e-01, 5.022897130116635855e-01, -8.631234906074983920e-03, 1.817481702719075942e-01, 2.988683472966701116e-01, -6.252658758435072905e-02, 1.205502355282561527e-01, -2.853400991548417560e-04, -3.874472109179515344e-01, -4.363221950820201367e-01, -2.841121914381229407e-01, 7.096675990811320001e-02, 2.512254935516243792e-01, 4.053507070202229667e-01, 3.535709111564983107e-03, 8.399616227056519446e-02, -1.474346858965046581e-01, -1.304627374139157581e-01, 2.246019311348134220e-02, -2.563680170837189243e-01, -5.682779147592755820e-01, -4.561973319065396049e-01, -8.932503409623245016e-02, 4.320219326938923299e-01, 6.911790867986481457e-01, -1.635287716864109245e-02, -3.588684172819884832e-01, -3.767984537298744718e-01, -3.812764019371822077e-01, -1.893419368119819979e-01, 7.320561926461059687e-02, -1.128063417924788786e-01, -4.373362598211011365e-01, -4.055335313573162903e-01, 1.347866622980052609e-01, 4.708859082415979280e-01, 4.851686216185977507e-01, -8.516892669238747271e-02, -1.745883520669818390e-01, -3.145845022402817825e-01, -4.000807440899257772e-01, -8.111038871607653689e-02, 7.976667756104610651e-02, 8.705557949012487917e-02, -3.174898395428730757e-01, -6.217852317851909616e-01, -4.940438078448703973e-01, -3.010315982770704890e-01, -4.073083997445671456e-02, 1.758220953800510716e-02, 1.727339940605966406e-01, 2.428574977709654636e-01, 2.882791567882546091e-01, 2.012029946050088169e-01, -2.036550738661510943e-02, 4.139722505340311942e-01, 1.497353211469565348e-01, -2.454322366318522075e-01, -6.822070301560040351e-01, -6.511428570457044041e-01, -3.922986500097414564e-01, -6.505613447424320184e-02, 2.562033103366579967e-01, 2.022885098945285953e-01, 3.549923887763588581e-01, 1.511050512299897119e-01, 8.106998405480199399e-02, 4.700596906167778255e-01, 3.153013543122144546e-01, 1.164676470882892584e-01, -2.262783252322548011e-01, -3.075885272898915557e-01, -1.380591443440533916e-01, 1.137776036721245554e-01, 1.981083114761956754e-01, 6.972034615097665033e-02, 7.710359273078415399e-02, -1.215117251861128345e-01, 5.769365123192130018e-02, 4.075169167872152443e-01, 5.207776640369969900e-01, 3.588244818003132330e-01, 2.292927256034610339e-01, 1.049888165173255145e-01, -4.836013189680071767e-02, -4.079033205726031314e-02, -2.352415957078021064e-02, -1.155255916397354837e-01, -1.854909668934031364e-01, -1.380519777416940042e-01, 8.812918348389583989e-02, 2.539097467785413342e-01, 5.350845647733354360e-01, 4.208597125198776379e-01, 9.816624636167660400e-02, 1.654898498670542284e-01, 1.200303428878897460e-01, -1.276654515640979204e-01, -3.133971016597864589e-01, -5.354603461472733084e-02, -5.621828962943672958e-02, -8.321610208560603628e-02, 1.428312973183365753e-01, -1.935143367659223901e-01, -1.029767542347183734e-01, -1.372093821621885590e-01, 7.660819284702280116e-03, 2.150340100221737605e-01, 7.655205529398242947e-02, 6.981019534151347572e-02, -1.146430320981177281e-01, -2.586470623852466511e-01, -8.390476949154573871e-02, -2.034455229503342177e-01, -7.186257968740838997e-02, -4.545442832003604439e-02, -5.388017518662820832e-02, -1.938114382458627216e-01, 1.543741279095981189e-01, 3.284332111480380290e-01, 2.258669352794778762e-01, 2.882516495548219648e-01, 1.348936155422681693e-01, 1.430968297464625151e-02, -2.695106372992194799e-01, -3.076185615058442679e-01, -1.203074095967493762e-01, -8.223134973043051688e-02, 2.663588661135611255e-02, 2.869396713864518778e-01, 9.066290955292589659e-01, 1.256352292914333590e+00, 1.521039904489762895e+00, 1.280661446611336407e+00, 9.686381894044425733e-01, 3.734869677329979432e-01, 7.802920801578530630e-02, -1.169239372227232343e-01, -7.678388075397886425e-02, -1.330842251153929179e-01, 1.111499703703922592e-01, 6.735317694321986126e-01, 9.222678034307832950e-01, 5.749582245642502754e-01, 1.040092134532386137e+00, 5.931332567989076043e-01, 3.549695204725446529e-01, 1.959491063216659001e-01, -3.092883369523222875e-02, -1.116351776244319943e-01, -1.348996389277513051e-02, -3.298234941600407255e-02, -1.534967647915710387e-01, 2.366605021153878399e-02, -1.198380620706096245e-01, -1.726084597047354841e-01, 3.932548748250540016e-01, 6.710086446349142197e-02, 3.527172085808979451e-01, 4.651773353109497355e-01, 1.562568538266850549e-01, -6.556067430220320624e-02, -9.222278777413617235e-02, -5.154087576569011536e-02, -4.004195128357702638e-01, -4.551109035826291782e-01, -5.025947405056854222e-01, -5.876443880208782021e-03, 9.490234326871939408e-02, -2.281231474420050698e-01, -8.946994751580947215e-04, -1.970465677952500105e-01, -1.857551391811452512e-01, -7.772887614537683787e-02, -5.802981309785466835e-02, -2.439097508956976634e-01, -7.218942913659955884e-01, -6.175547817328881361e-01, -4.848831565400064658e-01, -3.261926078217203262e-01, -4.200718602889731423e-01, -6.115523463882206467e-01, -3.082569960952645238e-01, -1.049684036802850801e-01, 4.955230147701886884e-02, 2.829169632662633105e-01, 1.431650539659771147e-02, -1.495755502403555703e-01, -4.087754481052270905e-01, -3.259435657880361825e-01, -9.896122239979940338e-02, -4.510400751037618172e-01, -6.987745161920897452e-01, -2.489643029679901032e-01, 4.282732109339682652e-02, 2.147070044325979365e-01, 3.430927849934752305e-01, 4.190626702221344480e-01, 6.475381288512332967e-02, -5.307475068060582210e-03, 1.218962694102333766e-01, 3.516988049315266651e-01, 4.814628081730377152e-01, 2.754141012058354265e-01, 2.460100946465643701e-01, 3.929066148899909017e-01, 3.558292587478473767e-01, -1.715746719494783690e-01, 9.124097694129736091e-02, 8.252782429095117944e-02, -2.447492804234607799e-01, -2.298377567119147535e-02, 1.782730074006530219e-01, 5.826586861101397119e-01, 4.359042454331867322e-01, 3.292388140017225573e-01, 2.777038202641458620e-01, 2.285097946553989456e-01, -2.058608847056222491e-01, -6.514617589635417483e-01, -3.923386594671960936e-01, -3.547048921641826613e-01, -3.742619846620552360e-01, -1.343159599240680013e-01, 6.809704438942557059e-02, -5.955125889869856276e-02, 8.706622983808851024e-02, 3.795607722845550369e-01, 3.028390843322393278e-01, 1.278406372633857924e-01, -6.307279881342038597e-02, -2.178607717912683928e-01, -4.315222166020955125e-02, -1.799785845049497734e-01, -1.857169735390030718e-01, -2.113475078368873550e-01, -7.183968166237159059e-02, 2.046041730687404511e-02, 1.126680752284206777e-01, 4.074967350951407830e-01, 4.297256125509880120e-01, 4.302974777059633826e-01, 3.906992376439267778e-01, 1.960191999592217904e-01, 1.796485725643988743e-02, 1.102902801006761802e-01, -6.051141236912323251e-02, 9.640533998433337137e-02, -2.241812181855432767e-02, -1.117159121877330241e-01, -2.172463094470340750e-01, -5.618710826352146803e-01, -6.148883945798943040e-01, -3.879873498762079209e-01, 2.235310651971623291e-02, 2.356679769882921716e-01, 2.743422187202380624e-01, 2.149522712114977641e-01, 9.648697865224446779e-02, 1.019889273690927772e-01, 2.748149867031013383e-01, 2.400084377888393392e-02, -1.337088178812073092e-01, -4.857297704865450871e-01, -4.794397802293395849e-01, -4.818252356110305223e-01, -5.492816839537701529e-02, 3.576234633669837515e-01, 6.914206407190430781e-01, 5.787014412980324707e-01, 3.530116203077858228e-01, 3.049728426142843396e-02, 5.923317810420170026e-02, -1.780648935731960758e-01, -2.584439944874286632e-01, -2.265282605950570405e-01, -7.510413262131824252e-01, -6.723813401228132536e-01, -3.973103604845965031e-02, 4.381079011316623695e-01, 3.473338633302426870e-01, 4.303350718154614896e-01, 3.506869222699266486e-01, -1.266201482422525115e-01, -1.261389156496448838e-01, -1.853463917679208650e-01, 4.721707746813397777e-01, 2.436884740578071362e-01, -3.507062739259412809e-01, -4.302193434055632260e-01, 1.595293587976125416e-01, 1.441172627896769309e-01, -2.012406808195855434e-01, 3.525229678927950267e-03, 1.132129961901379156e-02, -1.982665670582615947e-01, 2.604867899008626517e-02, 4.671273534374781877e-01, 7.443602009081964344e-01, 1.665797124828403697e-01, -1.828543414183916582e-01, -1.884705754173148784e-01, 3.972624843755236945e-01, -1.164371188149246061e-01, -2.156905811549446050e-01, -2.709336450512275229e-01, -1.764034332356640422e-01, 2.445429607928059912e-01, 5.039129226719827326e-01, 4.685590037666424457e-01, 1.477028096958119818e-01, -1.844951567761058953e-01, -1.389124200315457747e-01, -2.006659607597787720e-01, 4.082940185855561399e-01, 3.096798399817811687e-01, 1.098472886822332711e-01, 2.614986465467998913e-02, -1.629012743879221792e-01, -5.048775540629352188e-03, 3.203851711269043445e-01, 2.151327074244911430e-01, 3.889922631911790774e-02, 1.375795443848074617e-01, 9.256380870309838249e-02, 1.183176767309224997e-01, 3.855923375632727690e-01, 2.876175978098228225e-01, 3.633512474170316753e-01, 2.679081003940071981e-01, -5.549076975026584480e-02, -6.957075376430563000e-03, 2.133517790848429019e-01, 7.354110286429604848e-02, -1.180013189365026471e-01, -6.133929176655666948e-02, 3.378492366667645852e-01, 3.107723228048666075e-01, -5.475363945022209376e-03, 6.700822283926924361e-02, 2.113938841482928266e-01, 1.498266587578991338e-01, -1.332229865113795098e-01, -2.758863441821517992e-01, -2.976195388678980480e-01, -2.521528593835024590e-01, -3.932014432744020960e-01, -3.667657048064508207e-01, 1.544289610597998352e-01, 3.269788300425631178e-01, -3.580776313981035713e-02, -3.486007027759035481e-01, -2.993456220352597175e-01, -1.756876450635185549e-01, -4.304095066938481984e-02, -1.261697594097509756e-01, -4.866412025319933332e-01, -6.867702027993245473e-01, -4.547183193480450192e-01, -5.515526379683094449e-01, 2.171996483153157062e-02, 1.702159486852372894e-01, -8.603773691695032477e-02, -3.792507718953129214e-01, 1.227912077928884800e-02, -1.121170472162485443e-01, -2.006923889021292387e-02, -1.869998983512205504e-01, -4.583650897957516346e-01, -7.496034548600525316e-01, -8.082296729073953356e-01, -7.888286786225193747e-01, -3.828738671592890053e-01, -1.081370415751403830e-01, 3.157549993297807389e-01, 2.742014301153203881e-01, 2.749210486017317767e-01, 1.300000801490659719e-01, 1.997013785514452008e-02, -1.389913321429077087e-01, -2.372810661639823682e-01, -2.285431526108965827e-01, -1.030489806096114291e-01, -3.107934851464835280e-01, -6.251639702380226704e-02, 5.541549461313331759e-02, 2.935601730291805267e-01, 4.261779886695801212e-01, 3.296831659916530377e-01, 1.260703600100391564e-01, 7.628548252115903427e-03, 4.221114733726261808e-02, -1.255517541892894329e-01, -1.323589947598304284e-01, -3.759396001804274356e-01, -3.387784914915635270e-01, -4.216633580769993950e-01, -1.040226237797810260e-01, 1.067090686073877692e-01, 1.100130889305591247e-01, 2.004014079528293468e-01, 1.473876527986436591e-01, -1.211723465759257934e-01, 3.026781476246258318e-02, -2.427451172838237040e-02, -2.351178292393493741e-01, -5.783264795979462525e-01, -7.774072846418420557e-01, -3.460484857589238850e-01, -7.605579656968486368e-02, 3.091009841163562255e-01, 3.650408993916156586e-01, 4.131785127058365537e-01, 2.040644497251976053e-01, 7.210980870140577294e-03, 1.202608779478201752e-02, -7.496221585965924528e-02, -4.109037476141728651e-01, -5.030826049247925091e-01, -3.119715836834995870e-01, -1.680654456496590010e-02, 2.586563661317858864e-01, 5.648967007025722520e-01, 5.147511274905113288e-01, 4.500848651061501449e-01, 4.058791626062781543e-01, 1.315931090490297106e-01, -1.217951487348207656e-01, 2.492335190857200219e-02, -2.179481700849855708e-01, -1.442946692293297917e-01, -1.079833279214665043e-01, -6.042322311301678850e-01, -6.821192280145620401e-01, -6.037592503186875459e-03, 4.119439388326365248e-02, 2.143173320847780727e-01, 2.739550038347657313e-01, 1.995822361368448927e-02, 4.756103576349191703e-02, 4.886736588451116858e-02, 1.813051595188709952e-01, 2.704763988609255043e-01, -8.984236506247834930e-03, -3.717006395344477632e-01, -2.004565359552649695e-01, 4.892988941321207985e-01, -5.028042074415305790e-02, -1.422491388374010901e-01, -2.015282384830085760e-01, -1.575532482921318533e-01, 1.637775044256359336e-01, 4.642861271386113931e-01, 4.364321911841047563e-01, 5.221066160169594017e-01, 2.430865012957981186e-01, -3.072929778894940012e-01, 2.596232864844161270e-01, 6.797553244407507078e-01, -1.031925600752652966e-01, 2.628910277141416948e-03, -2.506066202345095806e-01, -5.076122910902707702e-02, 2.847118889534294706e-01, 6.225939312592866370e-01, 5.559565990637412858e-01, 4.573980174035739421e-01, -1.380386162223291024e-01, -3.471912098385248058e-01, 2.250277898595907933e-01, 2.061805970783799902e-01, -3.546290590544978194e-01, 1.066554523213020800e-01, -1.241914487651629706e-02, -1.855176691376641748e-02, 1.344129619194343317e-01, 5.077674381314933871e-01, 4.955279865898843950e-01, 4.210706276393991199e-01, 7.414899979791639284e-02, 2.496070749619818119e-01, 3.089100816903093683e-01, -6.534963828102617264e-04, -2.184971065124682310e-01, -1.582352258831137282e-01, -1.370665107482056146e-02, -9.876579643493878236e-02, -3.378275889795387954e-01, -2.144064153260976657e-01, 1.571682219472576164e-02, -8.361023457466622288e-02, 1.355471767387490256e-01, 3.178712869371870808e-01, 2.531682081271247609e-01, -1.782959200385711429e-01, -3.314714931052472613e-01, -2.824435067447585990e-01, -2.017434477689983019e-01, -1.713852072770521984e-01, -4.188797133770817971e-01, -8.409988034704907189e-01, -8.331634555514864093e-01, -5.530548926149928546e-01, -4.555763110557576323e-01, -1.769326998607626596e-03, 3.441187206017624206e-02, -6.891009538261935741e-02, -9.028622729463846308e-02, -2.265012273581288316e-01, -1.548567244013978328e-01, -1.615398051654200196e-01, -2.144610659841104938e-01, -6.187838786306644190e-01, -9.912780972381386446e-01, -6.309950646017611353e-01, -6.261844474404423266e-01, -2.943718594256044541e-01, 2.197522413959823451e-01, 3.100811481744977782e-01, 3.079546977991184931e-01, 4.310734143085628856e-02, 7.859743151353688895e-02, 2.930385689013864647e-02, -1.611778078431135575e-01, -1.774643793681118797e-01, -3.417972420011876067e-01, -1.523337760708372568e-01, -3.738055185161854865e-01, -2.094047879584532146e-01, -1.053286512106687417e-01, 1.174369983673684975e-02, 2.123145539108207414e-01, 1.839433114890362542e-01, -5.634809674710725830e-03, -5.736011033996584905e-04, 9.473288830210735423e-02, 2.633189243016956227e-01, 1.860523680450928141e-01, 2.602808091470331098e-01, 1.570470683029154546e-01, -2.446676039748921921e-02, -4.625626288543875642e-02, -2.790601960721768998e-02, 1.627891851999658523e-01, 1.631359301283275276e-01, 2.317889010347024825e-01, 1.285887696703124916e-01, 1.893203855375225064e-01, 3.415408596556591125e-01, 2.252366681811656668e-01, 2.695063632302179268e-01, -2.586694965941430460e-02, -3.432050335574924338e-01, -5.556928780302254900e-01, -1.961754529999805152e-01, 3.226684030205095866e-02, -1.487009985701300821e-03, 8.353716076972939053e-02, 2.887776920571506478e-01, 3.666331836823505386e-01, 4.756698269951887825e-01, 5.931695521476910982e-02, -8.121282106010238588e-02, 1.049753247709194065e-01, -4.804109901094112678e-02, -7.240403411781479170e-02, -1.174807464951578423e-01, 1.166861697998574227e-01, 3.771958892193208457e-01, 5.731334800279285213e-01, 8.218476915618280199e-01, 3.570741656371805850e-01, 8.511581902209541806e-02, -6.615790894289741431e-02, -3.382433067651579011e-03, 1.866431562789767351e-01, 8.441064361683607575e-02, -5.799954818260160544e-02, -2.928868787379770300e-01, -3.135842342103151159e-02, 2.370099739248006099e-01, 3.072146508055564329e-01, 9.946134918249982526e-01, 2.770796921107134270e-01, -1.917725564127087390e-02, -2.732622259670848264e-01, -1.225083320516439506e-01, -1.059317890512651572e-01, -6.426535482568477078e-03, -3.720238619768653221e-01, -8.336978812118021054e-01, -5.025850588071328895e-01, -3.213113876993800577e-01, -2.488748106229462798e-01, 6.719387127899021372e-01, 2.116818225507630935e-01, 2.468020352300738240e-01, -2.591799588869680426e-01, -5.856713889330147360e-01, -3.745457298611267194e-01, -9.514608554972251451e-04, -1.013889289837485719e-01, -4.773966307111140450e-01, -5.069307779767630029e-01, -7.950416351776640189e-01, -7.877921287552195340e-01, -3.279609890051102261e-01, 1.787201140418527845e-01, 4.128927766728537896e-01, 1.903155428358790924e-01, -1.886701524460277224e-01, 1.535077032453054657e-01, 4.771663283880590578e-01, 1.086001849613915105e-01, -3.741445027622761210e-01, -4.882410497440627384e-01, -4.407003021936340414e-01, -5.976841154083031293e-01, -5.825862619697034228e-01, 1.047396467085070643e-01, -7.786861352809636150e-02, -1.625417016488064567e-02, -1.380984828197900638e-01, 7.871377263519165057e-02, 1.182802687325958634e-02, -1.523569712977555779e-01, -3.190769981896036112e-01, -3.125011783544561772e-01, -1.869047546542084159e-01, -1.787749489256162116e-01, -7.413831021539524224e-02, 5.340882741233198006e-02, -2.374821722338932017e-01, -5.133935238395388456e-01, -6.498537026513406811e-01, -7.658565698433894564e-01, -4.393864036641941806e-01, -9.771480862114771682e-02, 1.720234984519630750e-02, 2.615426121860369157e-01, 9.785918968830793763e-02, -2.495022154441744675e-02, -8.451330801515194446e-02, 4.818202605836302554e-02, -1.524704530597768559e-01, -3.302647968582373972e-01, -5.787989678609312127e-01, -4.522295115257959353e-01, 1.114119322819351332e-01, 3.969199094526097982e-01, 3.800827869710836637e-01, 2.189766914108681739e-01, 7.140518986493397946e-02, 1.626259846338413972e-01, 2.005664056607411871e-01, 1.019344278478708649e-01, 2.479883732499721660e-01, -1.781636351668684504e-01, -3.772479374933949137e-01, -4.159316737282867105e-01, -1.652143794303780056e-01, -5.769218085659082174e-02, -1.839383904222226251e-01, 5.220953609875640840e-03, 1.112156670103431333e-01, 3.186441858718774833e-01, 2.591385519173115548e-01, 2.181378284391197186e-01, 1.222555726660705527e-01, 1.362373709961712254e-01, -9.403344270998575949e-02, -3.882950569844585420e-01, -3.665243778588598289e-01, -2.375706292974232373e-02, 8.412268940231880376e-02, 2.755344160319697089e-01, 2.039982828903498524e-01, 1.976580614952007930e-01, 1.809342611245700339e-01, -1.658584688932120133e-02, -1.598362595332979419e-01, -1.408499964516023994e-01, -9.829883795699745352e-02, -2.969191546048133845e-01, -4.331609043430419970e-01, -2.438185353656135701e-01, 1.267274485359752845e-01, 1.031953978105401709e-01, 1.379315819098209106e-01, 1.747496237450115175e-01, 7.166657615369285972e-02, -2.209333612525112844e-01, -3.086135846546728678e-01, -2.577810398166080486e-01, -1.877815310505471236e-01, -5.397875949532756137e-03, -2.746950594121949640e-01, -2.942097123341980147e-01, 1.990528033848809608e-01, 6.938113668691541225e-01, 8.558459863820907509e-01, 8.616516754680340062e-01, 6.728467683296434076e-01, -3.561905688102880996e-01, -3.934823448443798832e-01, -2.156627440262906537e-01, -1.760275625050337356e-01, -1.454541219369956950e-01, -2.189463850710781645e-01, -6.549374011763226845e-03, 4.303758149340719541e-01, 8.462509185706810211e-01, 1.149762875874312584e+00, 1.294198012878958970e+00, 1.332050143001930476e+00, -1.406120740674989544e-01, -7.503109406984385943e-02, -3.313263468922141020e-02, -1.636314733620784171e-03, -6.867546049134581887e-02, 3.910501795029088790e-01, 2.310951060792551526e-01, 3.265145215720505201e-01, 4.035482361089035575e-01, 7.434185841881061352e-01, 9.015097852610109985e-01, 1.352218910636469262e+00, -1.072616052421384719e-01, -8.217428117558968348e-02, -1.450094635044076596e-01, 5.095737073962995634e-02, 3.679202758235434745e-01, 3.823419516081428271e-01, 2.633062705875959808e-01, 8.662913569206874553e-02, 1.485065673256171642e-02, 4.650526173150825587e-02, 7.231166347723495813e-02, 9.835915948229984052e-01, -6.361701845328560090e-02, -3.652900203780943822e-01, -3.240895839941784207e-01, -1.329419643055799183e-01, 1.346079812046290514e-01, 1.495621510967760914e-01, 1.133012079004035860e-01, -1.241499002208004271e-01, -2.803232772228511083e-01, -2.278714432778765342e-01, -3.532825741533404673e-01, 3.057306273426025345e-01, -7.135181527625035491e-02, -4.046366566506893331e-02, -1.485227859845921761e-01, -3.897884478734937597e-01, -3.232473364398153470e-01, 2.214990688628682564e-02, 8.669087114765783308e-02, -1.323042766732492048e-01, -3.359101491141898155e-01, -4.380292027722924031e-01, -6.288256641107493605e-01, -3.607867836693315899e-01, 5.238882874230544467e-02, 8.433426040669890211e-01, 7.355854186697232677e-01, 2.344858782678946874e-01, 6.626917497730697160e-02, -8.963580542135354823e-02, -3.430587723730282174e-02, 1.270541856414704983e-02, 1.828433655133110403e-01, 6.434743645051911598e-02, -2.646174463433298429e-01, -3.561893719830205862e-02, 1.222326744753241407e-01, 7.062131739164616562e-01, 8.826947470106920601e-01, 6.699252802116345551e-01, 5.095447594045360296e-01, 1.223450606938505519e-01, 1.444804063709481390e-01, 1.874969638553355133e-01, 1.047216370858743972e-01, 1.708107538707031303e-01, 5.510756366548165419e-02, 1.321195948221975947e-01, 1.482462046714715931e-01, 4.682492374555836112e-01, 7.623740363561306577e-01, 6.953782333301735674e-01, 4.329263508626650658e-01, 2.970116836551947026e-01, 7.798083120330674689e-02, -3.302427086082491275e-02, -4.395292956877704799e-02, -2.529935687246348541e-02, 1.272290203950697252e-01, 3.523934680449183343e-01, 5.219654494523694871e-02, 4.627736843415400370e-02, 4.203996535587973260e-01, 6.030412907142477241e-01, 4.036248097634834164e-01, 9.078228434637165920e-04, -9.678368406746218344e-02, -1.185283917893994038e-01, -4.336103397824189742e-02, -2.228462097990486362e-02, 2.565101211734707176e-01, 1.112536455129780610e-01, -6.519620643332763033e-02, -2.081743047337014929e-01, -2.151013468595622258e-01, -4.797462415226970422e-02, 1.128045173186656702e-01, 3.854772179322309145e-02, -9.211857349339390433e-02, -1.879936564977584268e-01, 2.067306211956744522e-02, 1.231822456014734918e-01, 4.264912472951036537e-02, 1.529222081608178074e-02, 1.430721464741749457e-03, -4.859691222396826660e-02, -2.024101071325565618e-02, -1.545969462423325280e-01, -3.249274580157797410e-02, 5.529184062564845153e-02, 5.912263510871553461e-03, 1.253511184180464977e-01, -2.802645800259134096e-02, 2.579137634853455041e-01, 7.086228352672102604e-02, 8.558696141961065484e-02, -5.552326159592659710e-02, -1.916158255245742903e-01, -5.111652980983807243e-02, 1.946962162143031916e-01, 9.200084356062850077e-02, -2.919382594738407014e-02, -1.356469960830682456e-02, -1.098735207408153003e-01, -1.802782778747508141e-01, -3.880367202255142339e-02, -7.739162340605972024e-02, -3.528004571553766677e-02, -1.803977573983180649e-01, -2.317249598955634371e-01, -3.293542089521354910e-02, 4.675619263517645507e-02, -5.452526207435864913e-02, -1.443200072499430386e-01, -1.446894530256452038e-01, -1.784455063439198130e-01, -1.461786641057524760e-01, -2.167568743408307685e-01, 2.776951255024053683e-02, 2.651442950447396515e-02, -2.300648294618829748e-01, -1.912945954801262838e-01, 1.489392234087355826e-01, 3.544269425539753327e-01, 3.649020113414051525e-01, 1.460918002826116502e-01, -2.919820612779038815e-01, -4.435647501074627130e-01, -3.541507717527172527e-01, -1.851614954921818601e-01, 1.037552126613745102e-01, 2.694495576265936165e-01, -1.299446820366158446e-02, 2.252017901045639814e-01, 4.856602101423258544e-01, 3.929741975563460499e-01, 2.364932501109224816e-01, -2.642826411695448074e-01, -6.631260459338144120e-01, -9.954983481217286601e-01, -6.684820155310544632e-01, -4.202393717263822048e-01, 2.401597668262904772e-01, 4.349602740162275549e-01, 5.088387910094831212e-02, 7.602901080815868684e-02, 4.356839838963773026e-01, 3.288965485956433787e-01, 3.630792429693249779e-01, -1.709422786364127034e-01, -3.898709206874236832e-01, -3.670436576139570195e-01, -3.213250516965159842e-01, -9.066675557565467836e-01, -3.471888941305459331e-01, 8.374288964678028996e-03, -8.583082448477195869e-02, -9.709506021425215461e-02, -7.914034965061782223e-02, 1.334708429164008919e-02, 1.767271606810174311e-01, -1.122781194055903348e-01, -1.547641207187695211e-01, 2.185986065982869486e-01, 9.447562196687714353e-02, -1.969103169470853149e-02, -2.202600482424148798e-01, -1.041273609866552874e-01, 3.308239201542181179e-02, 6.625103435249463102e-02, -2.211423811385055394e-01, -4.692323465948270989e-01, -5.163067638093943312e-01, -4.441193718170788340e-01, -3.382044957119256789e-01, 2.453347300776778372e-01, 2.873482127298307987e-01, 4.668957004702807279e-01, 9.557932779540072310e-02, 7.576365908531462745e-02, 9.041626349291290166e-02, 1.779748004049963861e-01, 1.954882729319862983e-02, -5.093513846811194012e-01, -6.063152550455356282e-01, -4.167931815241783799e-01, 2.144762747988108731e-01, 2.965626648397439169e-01, 3.819166614171988772e-01, 3.181510005578078726e-01, 1.757076837886800136e-01, 2.026096404636991144e-01, 2.214775351327661346e-01, 5.095339034208760109e-01, 6.198137728552468584e-01, 2.628261323176809272e-01, 3.775683460245639611e-01, 3.044522142470828530e-01, 2.108773257594090678e-01, 1.736579218985934425e-01, 2.621695487198972829e-01, 2.421507982580764773e-01, 3.299413165466097420e-01, 8.469294054602656552e-02, 2.757696007761285539e-01, 1.635959557718822122e-01, 5.029701011537590638e-01, 5.533792179516753285e-01, 5.381530159749907671e-01, 3.982837782890188971e-01, 3.036590162469354759e-01, 1.222654427556382900e-01, 1.880177198637380254e-01, 2.879311451124499932e-01, 4.882965305869770012e-02, 3.683204705155335851e-02, 1.820475620821458418e-01, 3.864060995859945613e-02, 1.990288010385880130e-02, 3.098728593596076775e-01, 3.871639010072717157e-01, 2.679481200422715870e-01, 2.367058490322425657e-01, 5.606453822902356457e-03, 6.229053673970186972e-02, 1.570618410995335001e-01, 9.814142981048905312e-02, 2.637303940242383127e-02, -1.599907528831415460e-01, -1.197043665555992398e-01, 1.414711519548311931e-02, 6.280695555389886886e-02, 1.769367581668684561e-02, 1.385255872130574661e-01, -1.198204914860963033e-01, -3.202949090620403338e-01, -2.999156940219582790e-01, -1.617349324034130786e-01, -6.010157166388688937e-02, 9.044925643956175376e-02, -6.001185230015628619e-02, 6.275723886244258254e-02, 3.186910218417104979e-01, 5.680424282626300725e-01, 9.356183127035029301e-01, 9.680190398153322162e-01, 5.030024757317179684e-01, 4.534367575981215759e-01, 2.943897684429380712e-01, 2.590896754851090833e-01, 3.093756472028035276e-01, 1.352257342931526551e-01, -1.169085311843415798e-01, 1.988604815845976259e-01, 2.278257707908564744e-01, 6.728512797645271881e-01, 8.908179638114203103e-01, 8.451791714437825176e-01, 5.088835081220183243e-01, 2.710138888196079177e-01, 1.941207525333170369e-01, 3.273319088203063276e-01, 1.268204712681653690e-01, -3.318563679003597860e-02, -6.396496255862148261e-02, 2.600072589760134001e-01, 1.438845150247062277e-01, 3.874375801666063435e-01, 6.269141353655661719e-01, 4.446043482255769841e-01, 6.834683775370248293e-01, 4.009513143880963915e-01, 1.601538663192234868e-01, -2.579915326473474282e-02, 4.957864382929119684e-02, -7.256271694926201554e-02, -3.109686122195308954e-03, 6.467670648493627217e-02, 2.696975658384355157e-01, 2.788751157281391113e-01, 2.054742483437895506e-01, 3.733590313477261335e-01, 2.469405397458559748e-01, -3.857008481275768785e-01, -5.369719493382385522e-01, -5.611007429462525620e-01, -2.385416072203286608e-01, -1.846526456331305799e-01, -6.317303820581096803e-03, -3.500801263663301521e-02, 1.681479749120907419e-01, 2.326243238235308208e-01, 4.585788208871643262e-02, 3.552027504429958182e-02, -2.028183081717835623e-01, -6.844104559214592154e-01, -6.336884015215989985e-01, -6.866469480029250283e-01, -4.965563159535673482e-02, 1.397609309018259249e-01, -6.214710092072051745e-02, -1.429097437636672741e-02, 2.885094986466227862e-01, 2.018144470676538349e-01, 1.880532282147932277e-01, -6.115577179466109847e-02, 2.517920422973103992e-02, 5.181239856827430518e-02, -2.092041364973096229e-01, -2.994234950355010860e-01, 2.423412834783417180e-01, 1.307486791946498583e-01, 2.331143515770781327e-01, -6.579485363872909776e-02, 1.465661636660985367e-01, -1.808650947525755615e-01, 2.763501627430937080e-01, 4.014504367653357053e-01, 2.700756255532468786e-01, -2.892988816048807088e-01, -1.569620045813204801e-01, -1.758111812972549398e-02, 1.748939416317001894e-01, -1.085611115799271081e-02, 8.092597139787036098e-02, 1.752763147376363573e-01, -1.613016929545506017e-01, -6.389988389806215974e-01, -1.839783830476862947e-01, -4.240225741102741225e-02, -4.809822545294670793e-01, -3.731487831059102644e-01, -6.065000832838203515e-02, 3.247340467091930916e-01, 4.016651246559971300e-02, -1.568132856444343637e-01, 1.136199708329210800e-01, 2.004592594526055649e-01, 6.637296833260964563e-03, -5.059131434433952190e-01, -8.054384618879926183e-01, -6.151980472855429483e-01, -1.961111735580109428e-01, 2.260435801366188213e-01, 4.015986097283447687e-01, 1.775680694404139226e-01, 5.861106925659512884e-02, 1.664832262985831146e-02, -1.130073401788192905e-01, 1.388968270406800154e-01, 8.153656765114644656e-02, 1.265391629232556769e-01, 5.638322027695036320e-02, 6.932915777295502180e-02, 3.522735132903493938e-01, 2.719937612882396549e-01, 1.911539526045744897e-01, 1.533964835923283358e-02, -3.980196439977307793e-02, -4.563664487680733212e-02, 4.502811153514350156e-02, -2.070770268027936206e-02, -7.079109636971055164e-02, 7.620185016733378724e-02, -3.571820447572228441e-02, -5.244987564142461478e-01, -4.761342981738793112e-01, -5.206218004761712370e-01, -4.169565425166354977e-01, -1.396606962030408627e-01, -1.819654405652487705e-01, -6.295661512672402760e-02, 4.275254768157614460e-02, 4.334778769157236755e-02, -1.881033015702713099e-02, 5.724346536997228924e-02, -3.251344167673895363e-02, -9.311759429703046764e-02, 3.136037906825654975e-01, 8.117119886783483729e-01, 9.494825786483795937e-01, 7.316443514852873919e-01, 5.483353707683611411e-01, 2.680394231147136264e-01, -6.322397622485954882e-02, -5.724036843294881549e-02, -2.114885358548837802e-01, -6.401977213813654366e-01, -7.883103091341998603e-01, -6.924059218704301522e-01, -4.707579131094040137e-01, -3.862913151116244004e-01, -2.812752900448123872e-01, -1.295993186733572777e-01, -2.519152948356831803e-02, 1.363237613388359193e-01, 2.318038085688918504e-02, -2.310983409240683906e-01, -5.200431418187592136e-01, -5.547654402660938677e-01, -6.694457835853573346e-01, -4.076277391690193985e-01, -4.640473111719528587e-01, -7.526199601481349255e-01, -6.004543473040694357e-01, -2.531777167074380497e-01, -1.116771936339812088e-01, -9.474916740853506214e-02, -1.804734273484468188e-01, -2.399172551854983348e-01, -2.985755894266165500e-01, -4.779869940873158751e-01, -1.731220142540593476e-01, -1.306019714913770613e-01, -5.747519947739799795e-01, -5.375442799299195995e-01, -6.483929429373534725e-02, 1.169696549258451984e-01, -2.906954793174966467e-02, -1.920191407412343843e-01, 1.619863880726379879e-02, -1.446493662948373782e-01, -4.627725838911497802e-02, 1.117953893223486844e-01, 7.964555737467049479e-02, -1.249254783586882245e-01, -7.149772220910405405e-04, -3.070563868925482720e-02, 5.068088156521178417e-02, 2.232793918027683733e-01, 2.954178873021991447e-01, 4.244681123816979040e-02, 2.113068686502753493e-02, 4.256336566580051772e-02, 2.397469711706564088e-01, 3.934696534945057445e-01, -1.516260767382584529e-01, 2.440263236070941357e-04, 8.951611759178788874e-02, 1.669438607053531087e-01, -2.024381894808582882e-01, 5.619409887909230378e-02, 2.298554774211840623e-01, 1.381607657735828554e-01, 3.345402080340704326e-02, 3.138193254204642291e-02, 3.529026886170585353e-01, 3.243693774764866977e-01, 2.767282755025173013e-02, 8.657921797479782577e-03, 1.773287481710794644e-01, 2.759775145050565037e-02, -6.607367844446249139e-02, -3.287513016380483929e-03, 2.255782394715009354e-01, 9.688584695372559619e-02, -2.725022322988965850e-01, 1.602909959696971753e-01, 2.188680951734409685e-01, 4.252619900237203932e-01, 3.966834879925042467e-01, -3.410431880683782030e-02, 1.277959618348850912e-01, -4.282984396272068034e-02, 8.988132931042634721e-02, 1.869811861350259286e-01, 1.171435460535591444e-01, -5.115636686932181765e-02, -2.306987298731767722e-01, -1.322446682035993692e-01, 1.253608096184702647e-01, 1.150935511100573266e-01, 5.383046247379907889e-01, 1.563700855099306800e-02, -1.453553862126305829e-01, 4.227932290812591587e-02, 3.079522112650587840e-01, 2.292801849726917320e-04, -1.209894664197699449e-01, -1.150665495475550748e-01, -1.731866197092158111e-01, -3.185134312238845355e-01, -9.271652645975574092e-02, 1.055034028271715218e-01, 1.742882104373117969e-01, 1.908210171307949538e-02, 2.818328998845075900e-02, 2.887493925976524212e-01, 2.395585708892850330e-01, -8.649886877885622216e-02, -8.960401958379848875e-02, -7.047635447705036249e-02, -2.347742080821892674e-01, -3.257958717674385163e-01, -3.206491625658014488e-01, -5.955046608617661774e-02, 3.284933226867490230e-01, 6.383599944701618956e-01, 4.796610116175987204e-01, 1.816028935459730598e-01, 1.201585161404737645e-01, -2.091017803693369370e-01, -1.617920425182924893e-01, -1.435392672966424865e-01, -1.338106716617289693e-01, -2.321739295937410019e-01, -4.896054242615071050e-01, -5.585527841887145684e-01, -4.265182854457825190e-01, -4.085287827920802139e-01, -3.005260765178144888e-01, -5.292852152509966990e-01, -3.277924192436922901e-01, -1.643602953178147918e-01, -1.564009645918243985e-01, 1.068410503009879498e-01, -8.103152751661860109e-02, 3.021466156556559118e-02, -2.747141658819103952e-02, 1.350270508692130202e-02, -3.545000269560508177e-02, 1.616876686445665179e-01, 3.798830041389069101e-01, 3.889709639420612652e-01, 5.312011978294983727e-01, 2.740191996376794004e-01, 1.114455435253704080e-01, -1.338646885914714368e-01, -1.837090162138162695e-03, -1.708562146098915047e-01, -9.413029920341924039e-02, -1.615577937672776632e-01, -2.498299626839151355e-01, -7.703277798484087571e-03, 2.233069371546786419e-01, 4.224536863713547197e-01, 3.224542696118471441e-01, 2.157907807314426440e-01, 3.611041357911707467e-02, -2.229998203500722226e-02, -1.536722745630459408e-01, -2.974747524044989433e-01, -3.118557360519597643e-01, -4.798049393616101166e-01, -5.411132654318252522e-01, -1.973380266793786086e-01, -2.255142354457145004e-01, -3.740763981279548456e-01, -4.548907118608513933e-02, -1.755517010254646904e-01, -1.784720158325712736e-01, 6.057463219623118039e-02, -2.230415163572759818e-01, -2.276358156053575610e-01, -4.285210343800682775e-01, -2.393792866437533529e-01, -1.988602113405029681e-01, -1.457838777219225002e-01, -4.956353815419742292e-01, -4.854849984110277683e-01, -3.472645368490303586e-01, -2.966792096020285929e-01, -3.731393114600814465e-01, -7.510371833077723880e-02, -1.756907659587683967e-01, -7.063102424031229842e-02, -5.695719110431093218e-02, 5.353225250801372376e-02, 9.920478204306013015e-02, -1.450307400437604588e-01, -1.734353945031907596e-01, -2.795769479770314758e-01, -2.201056727495877829e-01, -3.866209778656726909e-02, -1.829311611259233084e-01, -7.581388743819295062e-02, -6.771280968867897376e-02, 7.166264987816739485e-02, 3.409767379843149371e-01, 3.475694436666756371e-01, 2.769539665281438023e-01, -1.886300422669404814e-02, -2.588391935641929931e-01, -9.200791023623136611e-02, -1.129011343280354046e-01, 2.488711857748195921e-01, 3.260220729121087180e-01, -6.072258762855291259e-02, -1.681531197322309601e-01, 3.342471396159654162e-01, 6.028297762891425826e-01, 4.524933236382044921e-01, 2.377249741091004287e-01, 2.399557231760619455e-02, 2.085037209724805926e-02, -5.492389997179021729e-04, 1.693745082340497865e-01, 4.579594676600985959e-01, 4.271378156372484525e-01, 1.249587901054453609e-01, -1.494813986100936298e-01, 2.899913756426119593e-01, 4.349743128780277357e-01, 6.597503539542676210e-01, 4.917753833378670780e-01, 2.184563352078241205e-01, -1.286708862768784836e-02, -1.119527516422376689e-01, -1.481206303852804496e-01, 2.888093067310083806e-02, 1.519089121728273983e-01, -1.670906263425420979e-01, -1.751904755756611420e-01, 1.431696549766615090e-01, 1.918886280327975757e-01, 7.893589382705760160e-01, 3.624836861270329114e-01, -4.986519356736412306e-02, -4.082039160362007646e-01, -2.957698045159091738e-01, -1.951648086623817557e-01, -1.021421535527317938e-02, -2.679801409626605402e-01, -1.804384037851929912e-01, -3.429698754985021081e-01, 9.778833592610374631e-03, 2.993104190206513637e-01, 8.051944979855767404e-01, 8.036538773815079528e-01, 4.136344912145530905e-01, 1.258283741923901453e-02, -7.561358145460336799e-02, -1.278944413372753997e-01, -1.463668050863510262e-01, -4.409001492339908318e-02, 2.425580241581461877e-02, -8.025023145772432198e-02, -1.939222089759644607e-01, -5.168176952226285342e-02, 2.165765981305277088e-01, 6.839713506576668989e-01, 6.748663219287773796e-01, 3.912396723371148188e-01, -4.211983413511452556e-02, -4.199902338950956687e-02, -1.843012502651301121e-01, -6.123762494952332547e-02, -1.434576061159910654e-01, -1.453932314156113625e-01, -2.877588933653060232e-01, -4.568335538640558302e-01, -5.279879148002748490e-01, -6.870229033430440557e-01, -6.696251396206314155e-01, -6.568391652930882785e-01, -3.517473828033998995e-01, -2.022193941030241138e-01, -1.786869173512123654e-01, 6.212196765862256637e-02, -1.205500498399021125e-01, 1.232352798169870922e-01, -1.056032902852623891e-02, 1.609710408083640520e-01, 1.132067731347420753e-01, 9.477508728012944139e-02, 8.218701825152729045e-04, 8.670615397875672953e-03, 7.946177571424337116e-02, 3.953019520202036285e-02, -9.568869575971536423e-02, 2.062310401734201298e-02, 6.022930625582701564e-02, 1.436008328586010907e-01, -7.205153690647693454e-02, 1.078569296954537265e-01, -2.999523965808307407e-02, 1.254054497287127312e-01, 1.706598335024068214e-01, 1.717571416072477819e-01, 2.124880781918596362e-01, 2.225371371049783831e-01, -5.019479618303273466e-02, -1.620716654664870748e-01, -6.158382306266546591e-02, -5.769286289523710420e-02, -1.955683161825950978e-01, -5.044522456829163559e-01, -7.660736616110188635e-01, -6.730366863790767651e-01, -5.271780396791835299e-01, -5.738765289482788967e-01, -4.003791848287136523e-01, -3.892480348377689303e-01, -2.874502225091231655e-01, -1.084479803846960383e-01, -1.213776291990695394e-01, -1.385172879546998359e-01, -3.143385624098727904e-01, -5.452785860014094377e-01, -7.202510757267270858e-01, -8.344690215953869394e-01, -9.475797619999499766e-01, -6.862994242922857424e-01, -2.843600870544736314e-01, -1.553754593824792640e-01, 9.150780306791739260e-02, 5.773668167096718262e-02, -1.590426718067493861e-01, -2.172149950002658092e-01, -1.567242572492131558e-01, -4.499534332215573973e-01, -4.820342336297155916e-01, -3.397546654572121128e-01, -1.826844696729129636e-01, -3.738659574934339314e-01, -1.152639239431876850e-01, 2.162704241445450870e-01, 2.138523638862158405e-01, 1.649202922912636204e-02, -8.256834046911723513e-02, -1.201672324552869042e-01, 1.222486797863575614e-01, -1.360168109123069402e-01, 2.985624831354982134e-01, 7.771551719409589554e-01, 8.087352801202446484e-01, 2.023731453204870301e-01, -1.775317061248213590e-01, -6.027564661025480892e-03, 1.156321995093741867e-01, -1.194742289762778381e-02, -2.127060024887692247e-01, 8.808535551281813925e-02, 3.749494337649489917e-01, 4.129610316895572231e-01, 7.518457587514751905e-01, 8.920826729977339165e-01, 4.410807252817799395e-01, -3.451761268746977862e-01, -3.681471592339033982e-01, -7.712180590576304950e-02, 1.236415392884378517e-01, 6.136330856568990993e-02, -5.642951256910021945e-02, 2.232291158312437462e-01, 2.673856459166518706e-01, 5.144724693749108679e-01, 8.054523618565186949e-01, 3.092975423832824977e-01, -1.706104820297065505e-01, 7.938517947928703383e-03, 1.371311179175835337e-01, 4.411159599829844180e-01, 6.595545246720537769e-01, 3.710287449655880754e-01, 4.396647778767940468e-02, 1.156758076645201111e-01, 5.664486580951086925e-01, 6.410372422146977112e-01, 6.301603991052624476e-01, 1.299513903347277455e-01, 3.277158456157687194e-01, 7.500470616589111073e-01, 5.656363106175341660e-01, 5.127936728548938561e-01, 4.597260081928627451e-01, 4.999880863081828525e-02, -1.932177745312168016e-01, 4.369219052109572093e-02, 2.926178535455477014e-01, 3.706229807650204822e-01, 4.275562275543451918e-01, 5.546437329431893604e-01, 8.014610437339123594e-01, 5.799031232985558670e-01, 2.165239593279483232e-01, -1.015585332596120882e-01, -2.228913702617205395e-01, -3.093292785333149331e-01, -1.606274780301147065e-01, 5.925528730721855986e-02, 6.887841175021761075e-02, 1.509031407993181861e-01, 3.297618383827979338e-01, 5.370611203491129082e-01, 3.315411310040553006e-01, 3.504743335905836400e-03, -5.568573087550310330e-02, -5.527590175381943277e-02, -2.387962570069434021e-01, -2.325844820372783561e-01, -2.533949159465948009e-01, -1.170733716773210004e-01, -4.246134066018809189e-02, -1.133175576291695213e-01, 2.247410150089224901e-01, 1.899707565406058007e-01, 2.027360805473216732e-01, 2.056050603090598117e-01, 1.570218319981787625e-01, 5.423102663781692589e-02, -1.091873091194391632e-01, -1.673235261931779738e-01, 3.260477913353697701e-03, 7.449589864782843462e-02, -7.760300376075655870e-02, -8.523166425032867310e-02, -1.947021997913480906e-01, -5.484137066287533280e-01, -7.718462369178298310e-01, -7.013964734083975028e-01, -8.210482864529573543e-01, -5.243011523617683300e-01, -3.508993497580126797e-01, -5.389432444120534349e-02, 7.836213018031858157e-02, 1.509546608366950093e-01, 2.593452869388382376e-01, 4.422029002317457991e-01, 4.393941361371264676e-01, 2.492185676578947684e-01, -2.642780802803535931e-02, -2.732887860774818045e-01, -2.090023990262918629e-01, 5.397154885423935053e-03, -2.149602846845923565e-01, -2.180985619944182663e-02, -5.785034290078182317e-02, 3.709402945836683951e-01, 9.486101598926892642e-01, 1.101759551039800611e+00, 1.165876800605183838e+00, 9.878171309876110362e-01, 3.325213190125677065e-01, 3.339072726021481419e-01, 4.504934914188865047e-01, 4.935126261674073755e-01, 3.701156251553280319e-01, 5.798106219949326207e-02, -1.151241225304428240e-01, 4.830757928724533357e-01, 5.781943110750978887e-01, 6.573148112069968629e-01, 4.981979118096110382e-01, 2.377084272175623569e-01, 4.624131716311440932e-01, 4.847904323972430651e-01, 4.598265461309083979e-01, 2.246704749743294316e-01, 1.099860371532664499e-01, 1.028826492751561822e-01, -2.645739994083931568e-01, 3.546094454124692485e-01, 3.394594554112278506e-01, 5.548586291480810812e-02, -5.998504566828067458e-02, -1.610926309316031979e-01, 3.261616089733009316e-01, 4.937157443700315174e-01, 4.111779166020919085e-01, 2.040625434278014183e-01, 1.148800461084845542e-01, -5.649002025133547517e-02, -1.153609507025031844e-01, 2.612274336252089491e-01, 6.411651833556005235e-04, -3.469117883009966707e-01, -6.505438413085555815e-01, -6.401619728764735839e-01, -9.218355360522359487e-02, 3.168348885341756294e-01, 6.849806788604264618e-01, 6.408593192091770474e-01, 3.166418743885004439e-01, 3.557951765906312569e-01, -6.764435326820639194e-02, 1.990264240380729965e-01, -1.749882334713308285e-01, -1.247727467235361931e-01, 1.373986992770202531e-01, -1.394153359180048124e-01, -3.107596775600448558e-01, 1.709369868707183715e-01, 5.710197026587812141e-01, 5.716785679927905983e-01, 2.883053056440182393e-01, 1.392280401947532387e-01, -2.386039516272417046e-02, -1.378153820479475766e-01, -4.780541471567216760e-01, -4.050049168397970578e-01, -2.107074112988353842e-01, -5.610403609685117310e-01, -4.829506608327900907e-01, -1.635837165129552448e-02, 9.710010222133509672e-02, 3.772768177612743634e-01, 5.177084683077737282e-02, 4.208831776081272541e-02, -1.782368043725952311e-01, -6.670847887374556362e-02, -5.212400472459157719e-01, -5.501656864208626097e-01, -1.814028546138948261e-01, -5.994311304570236754e-01, -3.677145273453910623e-01, -9.058988421484416576e-02, -1.895917973972349735e-01, -3.720098714739247803e-01, -1.116185200795329346e-01, -2.073094748301384238e-01, -1.192519435427613628e-01, 3.391480425314221531e-02, -3.082467941053667615e-01, -5.413240101281429073e-01, -6.230506554249238826e-01, -5.538036669614136986e-01, -1.462949612000812583e-01, -8.088676193852918639e-02, -6.355577140713595252e-01, -7.602456862143329719e-01, -6.561123593984601321e-01, -3.237752875815548270e-01, -5.331682048393741880e-02, 7.607344765808354836e-02, 1.118998985677200214e-01, -1.172569975004297271e-01, -3.838446735580334224e-01, -2.831403410685351951e-01, -5.138823942046591431e-02, -5.922902109060365627e-02, -3.856390278721515963e-01, -6.502434021783972673e-01, -6.062626981357290834e-01, -3.627029635082288372e-01, -3.856085200085781345e-02, 2.164845696241950168e-01, 2.265740764180435851e-01, 2.632701533333671184e-01, 1.351276612718184944e-01, 1.869867342663962193e-02, 1.893102974283267514e-01, 2.464831638656106994e-01, 3.134850450752629247e-01, -1.883087506653894627e-01, -1.134608611074829909e-01, -8.190815070507655171e-02, 1.366109731827924445e-01, -4.585722162901112453e-02, -4.744821421672380801e-02, -7.510235233360253171e-02, -1.740289683853422642e-01, -2.719034604415194178e-01, -3.443874798688910110e-01, -4.050346535995656971e-01, -3.098957973229959917e-01, -1.410051770313845987e-01, 1.845444160800732356e-02, -2.336484134099049703e-02, 1.515154880416566541e-01, 1.249099352859528722e-01, 2.562865147421252154e-01, 1.718161184073858927e-01, 1.107797020288510681e-01, -9.023253953969104235e-02, -4.028927040382686009e-01, -4.747461609760737500e-01, -3.390040244157659366e-01, -1.147815750835604331e-01, -1.744954406462643215e-01, -7.865833269812431972e-02, 1.560143966894301792e-01, 2.016295178301196755e-01, 4.234976918122435041e-01, 5.287233988955152286e-01, 4.595137830045039617e-01, 5.719631494547692922e-03, -2.590272623291832166e-01, -4.690096088486276904e-01, -9.565093220247002093e-02, -2.933537836555422662e-01, -1.914586146428497448e-01, -1.700112237458137054e-01, 1.194887576128872975e-01, 3.557089574061781390e-01, 4.805377074130395831e-01, 5.090509198639101562e-01, 4.704927259761012004e-01, 4.443459434565919519e-01, 3.904040269657229056e-01, 2.567816383496546173e-01, 2.660038210742343701e-01, -7.118358439185978881e-02, -1.054713938092460140e-01, -1.159737212689565394e-01, 8.249155445671081666e-02, 3.746852503226324460e-01, 2.818150837376743323e-01, 5.691745767583874377e-02, 1.350928354788651642e-01, 1.595541190458492353e-01, 4.002239975320761034e-01, 8.229454404638488763e-01, 5.939424077801918056e-01, 7.940457943241004124e-03, -1.330039476836173962e-01, -1.848041545637677252e-01, 4.574582004268524377e-02, 4.076661412932472417e-01, -1.039116482450939544e-01, -5.575391182747949648e-01, -5.081694339904151425e-01, -4.218931072277149474e-01, 1.343969504935431337e-03, 6.858438396480865951e-01, 4.321616444523822542e-01, -5.886207893422538279e-03, -2.572857480895513471e-01, -1.473967542232464401e-01, 8.019629865393522461e-02, 5.813823493087186961e-02, -4.144129627896798174e-01, -6.685805643517152008e-01, -7.728108713936819862e-01, -9.642848639813229594e-01, -3.213394932759803257e-01, 3.345046796191212257e-01, 3.246423290658417282e-01, -1.512168612504884990e-01, -1.656505080132396890e-01, -3.586880810574240991e-02, 6.814074406711231879e-02, -2.205339043492313689e-01, -5.029812429083745373e-01, -7.679064387726457497e-01, -4.774686494300630635e-01, -3.914236317707399104e-01, 8.516600596315106186e-02, 1.885958628694368311e-01, 1.337561416475509246e-01, -3.388267819755571425e-02, -1.222125318505901531e-01, -4.182558633611127563e-02, -4.429960196949035700e-02, -2.684658764657587016e-01, -5.519061584904428885e-01, -5.881569767829613049e-01, -2.763097002710850902e-01, 8.035580310776074819e-02, 2.736998456109683842e-01, -1.270572103142453002e-01, -2.891339799759589102e-01, -2.137870215295040732e-01, -2.402791524464660544e-01, -1.696347448091671192e-02, 1.585503728619221397e-01, -1.355511715026488373e-01, -4.428899016496964380e-01, -5.627068806950812352e-01, -5.129115682180260816e-01, -4.730904069772936538e-01, 1.279677300243074051e-02, -4.010171674676303866e-01, -3.604634628113541073e-01, -4.550714160387185347e-01, -3.500728471977905820e-01, -1.030734790594489136e-01, -3.378031475339297873e-02, -1.128819209889526248e-02, -2.210985724201223745e-01, -1.797826381700714238e-01, -3.397172911121589811e-01, -5.535722201973467538e-01, -2.017391594291918500e-01, -5.435650834417715682e-02, -8.647074714892799552e-02, -1.979409462512397577e-01, -3.018840931701657904e-01, -8.252089422240133088e-02, 1.659398525967369087e-01, -3.222760669098368586e-02, 3.307902727688030731e-01, 5.701719945317030858e-01, 3.656485371070393731e-01, -2.712987249384231705e-02, 1.796145675491078175e-01, 4.650786899632721183e-01, 1.938597835170674244e-01, -1.261295778392128031e-01, -1.196787705315611149e-02, -1.751655674403266444e-02, 6.363486915941954369e-02, 4.479880548829354159e-02, -6.949481273245913283e-03, -7.858235398178492481e-02, 2.541380662982485605e-02, -2.106105464223131246e-02, 9.434140059025560021e-02, 2.053660200922388657e-01, 2.588260562845227097e-01, 1.349141881285596291e-02, -1.815349638634481538e-02, 2.602212819962374662e-02, -1.407832658063028486e-01, -2.182791122093689917e-02, -4.194275721914517141e-02, 8.171228675136081587e-02, -7.658625398486777758e-02, -4.524573098478471556e-01, -4.958668584120090039e-01, -5.257115042377698000e-01, -3.622726777906514761e-01, -2.880541692298911327e-01, -1.111389328932504694e-01, 9.636819141459600224e-02, -4.283207402567606320e-02, 2.676932624815782716e-02, 6.714507281214084078e-02, -5.087011323902460719e-02, -1.779991393061331195e-01, 1.433708133246550387e-01, 1.248983614677397491e-01, 1.280905332831071448e-02, 2.392178173942005326e-01, -2.485133763921086938e-02, -3.477229417030500147e-02, 5.951797247349038811e-02, 8.077930313111210403e-02, -1.839625659796366997e-01, -1.764841996399421908e-01, -3.136783545144163354e-01, 1.060544405168565157e-01, 2.436264711627985080e-01, 2.325361991125729777e-01, 8.321735437576216476e-02, -1.742549895948720673e-01, -1.464647509685649274e-01, -2.504604527368869404e-01, -9.981198847213049175e-02, 1.519798009946994322e-01, -4.574299104928292864e-02, -4.446840550484946752e-01, -6.125941212267514979e-01, -2.727263077346670506e-01, -1.922037849083863825e-01, -3.861275965592809722e-01, -2.931904010730390087e-01, -1.775838342358353195e-01, 1.331306154605931338e-03, 1.022153809808027669e-01, 3.699050974164940220e-01, 2.327918389069089100e-01, -9.555747366075822979e-02, -1.164965400609794671e-01, -4.515722826337271179e-01, -3.436902343245882285e-01, -6.595747076812397136e-01, -6.173012068191250368e-01, -2.700144154332834723e-01, 8.472013288401288034e-02, 4.425585020081514998e-01, 5.379800634911600099e-01, 6.251101179718253631e-01, 5.138291962071056540e-01, 9.358022630861304036e-02, 5.234985288900854961e-02, -1.176768430413776129e-01, -5.229426402560212184e-01, -1.093427008858601113e+00, -6.490405260909777319e-01, 7.024517376286176784e-02, 3.052422116760287740e-01, 4.399196536337575125e-01, 2.992532722971716352e-01, 2.234227192525055639e-01, 2.217051074166657698e-01, 1.176196558457761887e-01, 9.621784764172564008e-02, -2.096052594180573270e-01, -2.816233383393167977e-01, -1.018078602946064226e-01, 2.600988761020565088e-01, 1.199037733393728683e-01, 9.422679491953718511e-02, -7.463498355433025033e-02, -3.427268235231772930e-01, -4.535279221938861571e-01, -2.485672828035146165e-01, 1.799306699028719592e-01, 3.195459017075945145e-03, -1.142594477330369368e-01, 6.661399775913288135e-01, 1.138236460072393097e+00, 8.032371834895053464e-01, 2.134454803961304270e-01, -1.019884225459651433e-01, -5.957865241303932080e-02, -5.367983677097344364e-01, -3.576367877044246968e-01, -7.371276079824989891e-02, 1.792446697074123185e-01, -2.750993059733402024e-01, -1.202115435283938605e-01, 1.897683254903948513e-01, -1.531719645575743971e-01, -4.364325479265117602e-01, -2.456218811887785070e-01, -8.534176624149168722e-02, -4.334109198631466014e-02, -1.144689711195917385e-02, 7.728250273206321852e-02, 1.616134184716342403e-01, 2.228951335867761924e-02, -1.833018566778961064e-02, -1.685131229697079680e-01, -2.154448084635355309e-01, -8.353176046685788503e-01, -5.944038618129345863e-01, -4.971164277959830291e-02, 3.239181727391683974e-01, 1.727421491509936735e-02, 1.665421240682591064e-01, 2.333672779602020964e-02, -6.762578183347761618e-02, 7.105721646865931218e-03, 6.510590617734698937e-02, -2.729745366827156516e-01, -3.710600407602299144e-01, 7.014442493525090139e-02, 2.455645464825080004e-01, 2.555772977860937267e-01, 2.513651339808957164e-01, 3.948214264083644842e-01, 2.797820583587004029e-01, 7.937923488200590572e-02, -1.343798974675156077e-01, -1.918178997970734212e-01, -1.423980261217217824e-01, -2.834379358522166048e-01, -1.025870033799414494e-01, 5.379984035517570290e-02, 4.241596936440763521e-01, 4.105129410170442195e-01, 3.422495497723951341e-01, 4.679442850293426270e-02, 8.531629019140656717e-03, -3.629965917415754056e-02, -1.869990013143018603e-01, -3.119044369499208713e-01, -3.795090068314469489e-01, -3.376390862360627021e-01, 3.574613110619062118e-04, 2.713567863885360532e-01, 5.899345352760632100e-01, 8.388343512009842629e-01, 5.500777221332463496e-01, 1.965108513037431837e-01, 6.951423778622696503e-02, 1.797871224611779506e-01, -1.164643309628667356e-01, -1.525016336955579144e-01, -1.476209821178303683e-01, -6.301992065107400731e-02, 3.342408106728163991e-02, 5.253363174505107369e-02, 1.229262708493459449e-01, -2.237430171050930339e-01, -9.495024151353347042e-02, 1.888681114782908010e-01, 5.285772698123275548e-02, 1.759677624698982312e-01, 1.533060295045295673e-01, -1.778576866024219119e-02, 2.053144971962839460e-01, 2.311377485659291964e-01, 3.560375765734739573e-01, 2.493717016032566125e-01, 1.592193862916857494e-01, -2.060876526532146868e-01, -2.983259629316769787e-02, 2.515884565777835036e-01, 2.871564500003632725e-01, 3.795985708529819314e-01, 4.396759069145186327e-01, -1.394838763023362183e-01, 6.443233785580471107e-02, 4.559598546672842534e-02, -2.637610663825242230e-01, -1.819646525380085866e-01, 1.262816569061876448e-01, -3.631033020575576420e-01, -1.240064007585412326e-01, 4.114339045034114406e-01, 3.696757573894546844e-01, 5.123398391663556151e-01, 4.538179875711133571e-01, -1.196826857063818667e-01, -2.870222806420422157e-01, -5.269464654443186680e-01, -4.350378289318552194e-01, 6.455762642951726193e-02, 6.012556169294595160e-02, -4.205642525904894624e-01, -5.957036507212082332e-02, -1.631672252149848346e-01, -2.267819108100899150e-01, -5.316784517442939978e-02, 1.087427093064788700e-02, -2.542706267017385002e-01, -4.599013667320527854e-01, -3.530091302945130849e-01, 9.243110623183900532e-02, 5.116211642217750183e-02, 2.662014496350562642e-01, 2.074062677858824755e-02, -2.414744351886037865e-01, -6.416262085282230521e-01, -3.871833334733152387e-01, -2.250734656274750445e-01, -5.073905245809409714e-02, -2.822102804554786348e-01, -4.536706772201231086e-01, -2.927276682674707087e-01, 1.263851389444047291e-01, 2.611912939314944837e-01, 1.525830104798707731e-01, -6.631662819606166936e-02, -1.868699197849178484e-01, -3.751110729778176500e-01, -4.185757411766072855e-01, -3.415153911563733047e-01, -1.562072261398045891e-01, -1.930492195795105170e-01, -1.127889639636593944e-01, -2.503969202005217887e-01, -4.246081516145632229e-01, 3.606082097665118391e-02, -1.081530855122445622e-01, -3.396812037853230160e-01, 3.665210105732145951e-02, -2.113309443723122016e-01, -2.976948810818570990e-01, -1.099839018777771932e-01, -4.176256501676035154e-02, -2.013670882090935477e-01, -2.026512298185071670e-01, -2.810835915589453560e-01, 2.619607262296455921e-02, 4.805011216445445599e-01, 4.546251626673066815e-01, 2.740174888220748839e-01, 5.971369012849151447e-01, 1.680055486622681060e-01, -2.603614825377678632e-02, -1.151234337511785333e-01, -1.220189108370807185e-01, -4.239350563384144954e-01, -4.385072171297972887e-01, -3.618329193475468553e-01, -6.629843390670150938e-02, 1.474583192144162946e-01, 3.032205593767087204e-01, 3.458045661501079060e-01, 2.977077162719284353e-01, 1.451383025707673469e-01, 1.579127102734701471e-01, -1.269638980616210611e-01, -1.335512736625030228e-01, -2.263441723795187044e-01, -1.424958053262907753e-01, -1.580743545901577563e-01, -2.192868097324975618e-01, 1.032137204065247393e-01, 4.873193782713879374e-01, 3.074529046585582903e-01, 9.496397426135456954e-02, 1.079308503541518555e-01, -1.579836940210670865e-02, -9.432713977032913810e-02, -1.698805032400414194e-01, -1.340342287375204666e-01, -5.527635735681170337e-02, -1.489053966220099112e-01, 1.386970024909307299e-02, 2.171294133561350870e-01, 1.883292738702677382e-01, 6.973594715995266868e-02, 5.993444692796667805e-02, 2.003494176478435446e-02, -1.064979667361488219e-02, -1.673003177784869733e-01, -1.249217351828475625e-01, -6.641749796246562698e-02, -1.227446112249683807e-01, 1.160147468848973656e-01, 4.769940068176749259e-02, 2.414747129558575955e-01, 1.146578444430603055e-01, -1.839050312825818989e-01, -3.257715872570551841e-01, -5.301076610095081104e-02, -3.404128274696680001e-02, -5.613496625455032668e-02, 4.344624023753107175e-03, -2.692888821127105425e-02, -9.018199028597026490e-02, 2.058672140252424676e-01, 5.554439720909714467e-02, 